{"learner":{"attributes":{"best_iteration":"99","best_ntree_limit":"100","scikit_learn":"{\"use_label_encoder\": false, \"n_estimators\": 100, \"objective\": \"binary:logistic\", \"max_depth\": null, \"max_leaves\": null, \"max_bin\": null, \"grow_policy\": null, \"learning_rate\": null, \"verbosity\": null, \"booster\": null, \"tree_method\": null, \"gamma\": null, \"min_child_weight\": null, \"max_delta_step\": null, \"subsample\": null, \"sampling_method\": null, \"colsample_bytree\": null, \"colsample_bylevel\": null, \"colsample_bynode\": null, \"reg_alpha\": null, \"reg_lambda\": null, \"scale_pos_weight\": null, \"base_score\": null, \"missing\": NaN, \"num_parallel_tree\": null, \"random_state\": null, \"n_jobs\": null, \"monotone_constraints\": null, \"interaction_constraints\": null, \"importance_type\": null, \"gpu_id\": null, \"validate_parameters\": null, \"predictor\": null, \"enable_categorical\": false, \"max_cat_to_onehot\": null, \"eval_metric\": null, \"early_stopping_rounds\": null, \"callbacks\": null, \"classes_\": [0, 1], \"n_classes_\": 2, \"_estimator_type\": \"classifier\"}"},"feature_names":["days_policy_to_claim","claim_amount","sum_insured","claim_count_1y","was_investigated","policy_count"],"feature_types":["int","float","int","int","int","int"],"gradient_booster":{"model":{"gbtree_model_param":{"num_parallel_tree":"1","num_trees":"100","size_leaf_vector":"0"},"tree_info":[0,0,0,0,0,0,0,0,0,0,0,0,0,0,0,0,0,0,0,0,0,0,0,0,0,0,0,0,0,0,0,0,0,0,0,0,0,0,0,0,0,0,0,0,0,0,0,0,0,0,0,0,0,0,0,0,0,0,0,0,0,0,0,0,0,0,0,0,0,0,0,0,0,0,0,0,0,0,0,0,0,0,0,0,0,0,0,0,0,0,0,0,0,0,0,0,0,0,0,0],"trees":[{"base_weights":[4.4277862E-1,1.6264462E0,2.3183289E-1,9.480371E-2,1.4992459E0,-3.010448E-2,1.516129E0,1.4150198E0,1.726708E0,-1.0413476E-1,3.3563673E-2,1.5754716E0,1.1052631E0,1.4685991E0,1.125E0,1.7452229E0,5E-1,-7.636207E-2,-3.2982457E-1,4.397163E-1,1.3783597E-2,5.714286E-1,1.5942029E0,-1.1111112E0,1.3239436E0,1.0877193E0,1.5124654E0,-1.5384616E-1,1.2643678E0,8.2417585E-2,-1.4810206E-1,-6.1538464E-1,-8.805031E-2,-0E0,5.794392E-1,-5.33168E-2,9.74478E-2,1.1111112E0,-2.2222222E-1,1.4461539E0,-0E0,1.2941177E0,-4E-1,2.2222222E-1,-5E-1],"categories":[],"categories_nodes":[],"categories_segments":[],"categories_sizes":[],"default_left":[1,0,1,1,1,1,1,1,1,1,1,1,1,1,1,0,0,1,1,1,1,1,0,0,1,1,0,1,0,0,0,0,0,0,0,0,0,0,0,0,0,0,0,0,0],"id":0,"left_children":[1,-1,3,5,7,9,11,13,15,17,19,21,23,25,27,-1,-1,29,31,33,35,37,-1,-1,39,41,-1,43,-1,-1,-1,-1,-1,-1,-1,-1,-1,-1,-1,-1,-1,-1,-1,-1,-1],"loss_changes":[4.9925186E2,0E0,2.9501437E2,2.7251776E2,7.321472E-1,6.657597E0,1.2820129E0,3.1350708E-1,4.1557312E-2,4.067826E0,6.097565E0,1.0825806E0,1.0679928E1,8.4121704E-2,4.4720383E0,0E0,0E0,6.6502237E0,4.864991E0,2.1657052E0,4.0780807E0,1.7460316E0,0E0,0E0,2.8719387E0,4.8932915E0,0E0,5.3418803E-1,0E0,0E0,0E0,0E0,0E0,0E0,0E0,0E0,0E0,0E0,0E0,0E0,0E0,0E0,0E0,0E0,0E0],"parents":[2147483647,0,0,2,2,3,3,4,4,5,5,6,6,7,7,8,8,9,9,10,10,11,11,12,12,13,13,14,14,17,17,18,18,19,19,20,20,21,21,24,24,25,25,27,27],"right_children":[2,-1,4,6,8,10,12,14,16,18,20,22,24,26,28,-1,-1,30,32,34,36,38,-1,-1,40,42,-1,44,-1,-1,-1,-1,-1,-1,-1,-1,-1,-1,-1,-1,-1,-1,-1,-1,-1],"split_conditions":[3.05E1,4.879339E-1,5E-1,2.5E0,1.5E0,1.515E2,4.205E2,2.9217715E4,6.395E2,3.2138254E4,1.605E2,3.45E1,5.7252705E3,5.85E1,3.0064207E4,5.235669E-1,1.5E-1,6.15E1,7.05E1,7.5E4,2.1429541E4,3.25E1,4.7826087E-1,-3.3333337E-1,3.4787508E4,2.57772E4,4.537396E-1,1.56E2,3.7931037E-1,2.4725277E-2,-4.443062E-2,-1.846154E-1,-2.6415095E-2,-0E0,1.7383178E-1,-1.599504E-2,2.923434E-2,3.3333337E-1,-6.666667E-2,4.3384618E-1,-0E0,3.8823533E-1,-1.20000005E-1,6.666667E-2,-1.5E-1],"split_indices":[0,0,4,3,3,0,0,1,0,1,0,0,1,0,1,0,0,0,0,2,1,0,0,0,1,1,0,0,0,0,0,0,0,0,0,0,0,0,0,0,0,0,0,0,0],"split_type":[0,0,0,0,0,0,0,0,0,0,0,0,0,0,0,0,0,0,0,0,0,0,0,0,0,0,0,0,0,0,0,0,0,0,0,0,0,0,0,0,0,0,0,0,0],"sum_hessian":[2E3,3.015E2,1.6985E3,1.53375E3,1.6475E2,1.41075E3,1.23E2,1.255E2,3.925E1,6.52E2,7.5875E2,1.05E2,1.8E1,1.025E2,2.3E1,3.825E1,1E0,5.8175E2,7.025E1,3.425E1,7.245E2,2.5E0,1.025E2,1.25E0,1.675E1,1.325E1,8.925E1,2.25E0,2.075E1,1.81E2,4.0075E2,3.15E1,3.875E1,8.5E0,2.575E1,4.0225E2,3.2225E2,1.25E0,1.25E0,1.525E1,1.5E0,1.175E1,1.5E0,1.25E0,1E0],"tree_param":{"num_deleted":"0","num_feature":"6","num_nodes":"45","size_leaf_vector":"0"}},{"base_weights":[3.1919768E-1,1.2190945E0,1.6659564E-1,9.691912E-1,1.2474226E0,6.786003E-2,1.1223925E0,1.474718E-1,1.0400966E0,1.215323E0,1.5043517E0,-2.1121033E-2,1.1349682E0,1.0517952E0,1.3187934E0,8.7305063E-1,-5.0468624E-1,1.0982336E0,2.3944762E-1,-7.333302E-2,2.3765346E-2,1.1818445E0,8.154549E-1,1.0936582E0,8.291181E-1,1.1646539E0,6.313827E-1,-4.5030862E-2,4.140099E-1,2.4003653E-1,-8.580603E-2,3.1477997E-1,9.668808E-3,4.821592E-1,1.1945392E0,-9.418921E-1,9.959762E-1,8.08997E-1,1.1267349E0,-1.3369776E-1,9.382129E-1,-2.9729643E-1,1.0059656E0,3.610216E-1,-8.8109803E-1,-7.9516363E-1,-7.797907E-2,5.979851E-1,8.783638E-2,-5.962849E-1,1.7470159E-2,9.4189215E-1,-1.8531317E-1,1.2169346E0,5.959094E-1,-1.2610083E-2,1.1079537E0,9.737422E-1,-3.287948E-1,6.9160783E-1,1.2370194E0],"categories":[],"categories_nodes":[],"categories_segments":[],"categories_sizes":[],"default_left":[1,1,1,1,1,1,1,1,1,0,0,1,1,1,0,0,0,1,1,1,1,1,1,1,1,0,1,0,0,1,1,1,1,1,1,0,1,1,0,0,1,0,0,0,0,0,0,0,0,0,0,0,0,0,0,0,0,0,0,0,0],"id":1,"left_children":[1,3,5,7,9,11,13,15,17,-1,-1,19,21,23,-1,-1,-1,25,27,29,31,33,35,37,39,-1,41,-1,-1,43,45,47,49,51,53,-1,55,57,-1,-1,59,-1,-1,-1,-1,-1,-1,-1,-1,-1,-1,-1,-1,-1,-1,-1,-1,-1,-1,-1,-1],"loss_changes":[2.701125E2,8.1033325E-1,1.5886165E2,1.7999516E0,2.5595093E-1,1.4506879E2,7.9844666E-1,2.252135E0,1.1658974E0,0E0,0E0,3.308485E0,7.974701E-1,2.2010803E-1,0E0,0E0,0E0,1.4344025E-1,1.8534479E-1,2.5710027E0,3.1124961E0,3.1510925E-1,6.734126E0,1.7066956E-2,2.5690641E0,0E0,2.2867222E0,0E0,0E0,3.7417433E0,3.4261665E0,2.2006085E0,3.4395955E0,1.2376654E0,5.8670044E-1,0E0,1.9400692E0,2.9093018E0,0E0,0E0,6.9346046E-1,0E0,0E0,0E0,0E0,0E0,0E0,0E0,0E0,0E0,0E0,0E0,0E0,0E0,0E0,0E0,0E0,0E0,0E0,0E0,0E0],"parents":[2147483647,0,0,1,1,2,2,3,3,4,4,5,5,6,6,7,7,8,8,11,11,12,12,13,13,17,17,18,18,19,19,20,20,21,21,22,22,23,23,24,24,26,26,29,29,30,30,31,31,32,32,33,33,34,34,36,36,37,37,40,40],"right_children":[2,4,6,8,10,12,14,16,18,-1,-1,20,22,24,-1,-1,-1,26,28,30,32,34,36,38,40,-1,42,-1,-1,44,46,48,50,52,54,-1,56,58,-1,-1,60,-1,-1,-1,-1,-1,-1,-1,-1,-1,-1,-1,-1,-1,-1,-1,-1,-1,-1,-1,-1],"split_conditions":[3.05E1,8.924775E3,5E-1,2.5E0,5E-1,2.5E0,1.5E0,2.3743936E3,8.458297E3,3.645969E-1,4.5130554E-1,1.515E2,4.205E2,2.9217715E4,3.9563805E-1,2.619152E-1,-1.5140587E-1,3.5E5,1.1E1,2.101683E3,1.605E2,3.45E1,5.7252705E3,5.85E1,3.0064207E4,3.4939617E-1,1.5E0,-1.350926E-2,1.24202974E-1,1.395E2,3.1552788E3,1.7668074E4,1.625E2,3.25E1,4.5E0,-2.8256765E-1,4.395E2,2.57772E4,3.3802047E-1,-4.010933E-2,3.6833863E4,-8.918893E-2,3.017897E-1,1.0830649E-1,-2.6432943E-1,-2.385491E-1,-2.3393722E-2,1.7939553E-1,2.6350914E-2,-1.7888549E-1,5.2410476E-3,2.8256765E-1,-5.5593953E-2,3.650804E-1,1.7877284E-1,-3.783025E-3,3.323861E-1,2.9212266E-1,-9.8638445E-2,2.0748235E-1,3.7110585E-1],"split_indices":[0,1,4,0,4,3,3,1,1,0,0,0,0,1,0,0,0,2,0,1,0,0,1,0,1,0,5,0,0,0,1,1,0,0,3,0,0,1,0,0,1,0,0,0,0,0,0,0,0,0,0,0,0,0,0,0,0,0,0,0,0],"split_type":[0,0,0,0,0,0,0,0,0,0,0,0,0,0,0,0,0,0,0,0,0,0,0,0,0,0,0,0,0,0,0,0,0,0,0,0,0,0,0,0,0,0,0,0,0,0,0,0,0,0,0,0,0,0,0,0,0,0,0,0,0],"sum_hessian":[1.967421E3,2.8424353E2,1.6831775E3,3.252538E1,2.5171815E2,1.5265527E3,1.5662476E2,2.8282938E0,2.9697086E1,2.2885611E2,2.2862043E1,1.4099629E3,1.16589874E2,1.1988639E2,3.673837E1,1.1784558E0,1.6498381E0,2.7340174E1,2.3569117E0,6.5150104E2,7.584619E2,9.931963E1,1.7270239E1,9.76222E1,2.2264189E1,2.262635E1,4.7138233E0,1.1784558E0,1.1784558E0,2.4240591E1,6.2726044E2,3.405645E1,7.2440546E2,2.4645228E0,9.685511E1,1.2159108E0,1.6054327E1,1.2812743E1,8.4809456E1,2.2430081E0,2.0021181E1,1.4141469E0,3.2996762E0,2.2491455E1,1.7491367E0,5.7477593E0,6.2151263E2,1.44229555E1,1.9633493E1,8.248986E0,7.1615643E2,1.2159108E0,1.2486122E0,9.236671E1,4.4884076E0,1.6929777E0,1.436135E1,1.13181305E1,1.4946129E0,1.2784609E1,7.2365713E0],"tree_param":{"num_deleted":"0","num_feature":"6","num_nodes":"61","size_leaf_vector":"0"}},{"base_weights":[2.3732252E-1,9.865733E-1,1.22349195E-1,9.546557E-1,1.2573712E0,4.9462862E-2,8.955976E-1,9.2671955E-1,1.2748713E0,-1.5065538E-2,9.087631E-1,8.292848E-1,1.0898783E0,8.282652E-1,1.008605E0,-2.9556638E-1,-8.402142E-3,9.5130193E-1,6.293102E-1,8.874192E-1,6.4172304E-1,1.1427288E0,6.3667274E-1,-2.8645113E-1,8.59989E-1,1.2373599E0,9.387262E-1,-1.1330129E0,-1.2899101E-2,-1.3686367E-2,3.7638324E-1,1.0114723E0,6.7241186E-1,-8.199743E-1,7.856697E-1,7.755879E-1,1.055984E0,-5.889312E-1,7.5908524E-1,1.1643918E0,3.1878102E-1,-7.797408E-1,1.1099745E0,-7.860307E-1,3.5987273E-1,9.9835044E-1,6.915244E-1,9.441567E-1,2.4148439E-1,4.7403273E-1,-5.1739997E-1,-1.0123929E-2,-7.554481E-1,-4.6850723E-1,6.568093E-1,1.0415546E0,3.7747866E-1,-3.050547E-1,8.136358E-1,8.893142E-1,-1.3242382E-1,8.802391E-1,1.1302608E-1,1.1757952E0,7.506071E-1,8.600221E-1,3.9190158E-1],"categories":[],"categories_nodes":[],"categories_segments":[],"categories_sizes":[],"default_left":[1,1,1,1,0,1,1,1,0,1,1,1,1,1,1,1,1,1,1,1,1,1,1,1,1,0,1,0,1,1,1,1,1,0,1,1,1,0,1,0,0,0,0,0,0,0,0,0,0,0,0,0,0,0,0,0,0,0,0,0,0,0,0,0,0,0,0],"id":2,"left_children":[1,3,5,7,-1,9,11,13,-1,15,17,19,21,23,25,27,29,31,33,35,37,39,41,43,45,-1,47,-1,49,51,53,55,57,-1,59,61,63,-1,65,-1,-1,-1,-1,-1,-1,-1,-1,-1,-1,-1,-1,-1,-1,-1,-1,-1,-1,-1,-1,-1,-1,-1,-1,-1,-1,-1,-1],"loss_changes":[1.6436606E2,9.9401855E-1,9.33181E1,8.8739014E-1,0E0,8.401493E1,9.3383026E-1,9.0901184E-1,0E0,2.633097E0,6.594238E-1,6.35643E-1,6.562042E-2,3.9184265E0,6.532974E-1,7.7238693E0,2.807839E0,8.284073E-1,4.482095E0,7.2224426E-1,4.745776E0,1.356926E-1,4.6977577E0,1.452878E0,1.6688614E0,0E0,1.1697388E-1,0E0,6.4978557E0,3.5879493E0,4.7402124E0,9.7924805E-1,2.8621998E0,0E0,1.6209793E0,3.5697174E0,2.0931625E-1,0E0,6.861954E-1,0E0,0E0,0E0,0E0,0E0,0E0,0E0,0E0,0E0,0E0,0E0,0E0,0E0,0E0,0E0,0E0,0E0,0E0,0E0,0E0,0E0,0E0,0E0,0E0,0E0,0E0,0E0,0E0],"parents":[2147483647,0,0,1,1,2,2,3,3,5,5,6,6,7,7,9,9,10,10,11,11,12,12,13,13,14,14,15,15,16,16,17,17,18,18,19,19,20,20,21,21,22,22,23,23,24,24,26,26,28,28,29,29,30,30,31,31,32,32,34,34,35,35,36,36,38,38],"right_children":[2,4,6,8,-1,10,12,14,-1,16,18,20,22,24,26,28,30,32,34,36,38,40,42,44,46,-1,48,-1,50,52,54,56,58,-1,60,62,64,-1,66,-1,-1,-1,-1,-1,-1,-1,-1,-1,-1,-1,-1,-1,-1,-1,-1,-1,-1,-1,-1,-1,-1,-1,-1,-1,-1,-1,-1],"split_conditions":[3.05E1,5E-1,5E-1,2.5E0,3.7721136E-1,2.5E0,1.5E0,2.013029E4,3.8246143E-1,3.55E1,4.205E2,3.5E0,3.1426031E4,5E-1,5.5E0,1.5E0,4.1693812E4,2.7885883E4,5.7252705E3,2.39E2,8.583811E3,5.78E2,3.345629E4,5E-1,2.5E0,3.7120798E-1,4.433937E4,-3.399039E-1,1.5E5,4.071273E4,7.5E4,4.5E0,2.926236E4,-2.459923E-1,3.4787508E4,1.995E2,2.4191098E4,-1.7667937E-1,2.7921559E4,3.4931755E-1,9.563431E-2,-2.3392226E-1,3.3299237E-1,-2.3580922E-1,1.07961826E-1,2.9950514E-1,2.0745732E-1,2.8324702E-1,7.244532E-2,1.4220983E-1,-1.5522E-1,-3.037179E-3,-2.2663444E-1,-1.4055218E-1,1.970428E-1,3.1246638E-1,1.132436E-1,-9.151641E-2,2.4409075E-1,2.6679426E-1,-3.9727148E-2,2.6407176E-1,3.3907827E-2,3.5273856E-1,2.2518213E-1,2.5800666E-1,1.1757048E-1],"split_indices":[0,4,4,3,0,3,3,1,0,0,0,5,1,0,0,5,1,1,1,0,1,0,1,3,5,0,1,0,2,1,2,3,1,0,1,0,1,0,1,0,0,0,0,0,0,0,0,0,0,0,0,0,0,0,0,0,0,0,0,0,0,0,0,0,0,0,0],"split_type":[0,0,0,0,0,0,0,0,0,0,0,0,0,0,0,0,0,0,0,0,0,0,0,0,0,0,0,0,0,0,0,0,0,0,0,0,0,0,0,0,0,0,0,0,0,0,0,0,0,0,0,0,0,0,0,0,0,0,0,0,0,0,0,0,0,0,0],"sum_hessian":[1.9084427E3,2.5288394E2,1.6555588E3,2.3026869E2,2.261526E1,1.5139207E3,1.4163808E2,2.1537321E2,1.4895477E1,1.4090889E3,1.0483183E2,1.095235E2,3.211458E1,1.02839645E2,1.1253356E2,3.1690628E1,1.3773982E3,8.88958E1,1.5936037E1,8.076057E1,2.8762934E1,2.7398115E1,4.7164626E0,2.6235442E0,1.002161E2,2.242289E1,9.011067E1,7.2381554E0,2.4452473E1,1.3596902E3,1.7708082E1,7.095952E1,1.7936275E1,1.1385689E0,1.4797468E1,5.1917763E1,2.8842804E1,2.1543593E0,2.6608576E1,2.6293627E1,1.1044879E0,1.0191329E0,3.6973298E0,1.357839E0,1.2657053E0,5.2319477E1,4.7896626E1,8.9062874E1,1.0477985E0,1.2473627E1,1.1978846E1,1.3542001E3,5.490131E0,4.245673E0,1.3462409E1,6.713137E1,3.828148E0,2.117835E0,1.5818441E1,1.332459E1,1.4728788E0,4.4552227E1,7.365536E0,1.8668228E1,1.0174576E1,1.981839E1,6.790185E0],"tree_param":{"num_deleted":"0","num_feature":"6","num_nodes":"67","size_leaf_vector":"0"}},{"base_weights":[1.7802283E-1,8.187983E-1,9.050491E-2,7.865957E-1,1.1095383E0,3.60587E-2,7.299276E-1,7.5902116E-1,1.1208315E0,-1.0949171E-2,7.4175686E-1,6.640574E-1,9.367619E-1,4.9400505E-1,7.847612E-1,-1.3458307E-2,6.628249E-1,7.811554E-1,4.9173805E-1,6.06943E-1,9.1894627E-1,1.0265212E0,6.3468057E-1,6.6467196E-1,-2.5992638E-1,8.326985E-1,5.9916884E-1,-9.907191E-3,-5.0800735E-1,9.963076E-1,-2.2462678E-1,8.3506733E-1,5.166984E-1,-7.264359E-1,6.3020474E-1,6.3010436E-1,-4.1579783E-1,1.173492E0,6.778559E-1,2.8787696E-1,9.822417E-1,3.9444312E-1,1.0989165E0,-1.0178336E0,7.9327685E-1,7.1785486E-1,9.0105814E-1,6.9639707E-1,2.1441005E-1,-1.3965E-2,3.2516313E-1,-1.1080003E0,-1.442513E-2,2.1984912E-1,1.2692764E0,2.2886743E-1,8.6304134E-1,-7.1190214E-1,6.509163E-1,1.3198096E-1,9.0828925E-1,7.241464E-1,3.9692226E-1,-2.3159032E-1,8.7736475E-1,6.256016E-1,-6.2657315E-1],"categories":[],"categories_nodes":[],"categories_segments":[],"categories_sizes":[],"default_left":[1,1,1,1,0,1,1,1,0,1,1,1,1,1,1,1,1,1,1,1,1,0,1,1,1,1,1,1,1,1,0,1,1,0,1,1,0,0,1,1,0,0,0,0,0,0,0,0,0,0,0,0,0,0,0,0,0,0,0,0,0,0,0,0,0,0,0],"id":3,"left_children":[1,3,5,7,-1,9,11,13,-1,15,17,19,21,23,25,27,29,31,33,35,37,-1,39,41,43,45,47,49,51,53,-1,55,57,-1,59,61,-1,-1,63,65,-1,-1,-1,-1,-1,-1,-1,-1,-1,-1,-1,-1,-1,-1,-1,-1,-1,-1,-1,-1,-1,-1,-1,-1,-1,-1,-1],"loss_changes":[1.0369307E2,1.207901E0,5.669053E1,1.0248642E0,0E0,4.9846157E1,1.1188736E0,9.158859E-1,0E0,2.3918273E0,5.4022217E-1,9.031563E-1,1.1935425E-1,2.6968136E0,1.0355759E0,2.46289E0,1.7773709E0,7.000694E-1,3.0678058E0,2.273756E0,2.1251106E-1,0E0,8.1799126E-1,1.4765162E0,4.2715397E0,4.0914917E-1,1.3085632E0,1.9029727E0,2.9450831E0,5.6866336E-1,0E0,8.9292145E-1,3.1121101E0,0E0,1.8793178E0,1.5424118E0,0E0,0E0,2.1633177E0,2.2405565E0,0E0,0E0,0E0,0E0,0E0,0E0,0E0,0E0,0E0,0E0,0E0,0E0,0E0,0E0,0E0,0E0,0E0,0E0,0E0,0E0,0E0,0E0,0E0,0E0,0E0,0E0,0E0],"parents":[2147483647,0,0,1,1,2,2,3,3,5,5,6,6,7,7,9,9,10,10,11,11,12,12,13,13,14,14,15,15,16,16,17,17,18,18,19,19,20,20,22,22,23,23,24,24,25,25,26,26,27,27,28,28,29,29,31,31,32,32,34,34,35,35,38,38,39,39],"right_children":[2,4,6,8,-1,10,12,14,-1,16,18,20,22,24,26,28,30,32,34,36,38,-1,40,42,44,46,48,50,52,54,-1,56,58,-1,60,62,-1,-1,64,66,-1,-1,-1,-1,-1,-1,-1,-1,-1,-1,-1,-1,-1,-1,-1,-1,-1,-1,-1,-1,-1,-1,-1,-1,-1,-1,-1],"split_conditions":[3.05E1,5E-1,5E-1,2.5E0,3.328615E-1,2.5E0,1.5E0,7.109665E3,3.3624947E-1,1.1465E3,4.205E2,3.97E2,2.5636764E4,3.5E5,2.35E1,9.46E2,1.353E3,2.8997377E4,5.7252705E3,3.8E2,4.8E2,3.0795637E-1,3.345629E4,1.95E1,2.5E0,1.9297398E4,1.5E0,7.815E2,2.5E0,1.193E3,-6.7388035E-2,3.55E1,2.934356E4,-2.1793078E-1,5.305E2,2.6058754E4,-1.2473936E-1,3.520476E-1,5.375E2,3.1426031E4,2.9467252E-1,1.18332945E-1,3.2967496E-1,-3.053501E-1,2.3798306E-1,2.1535647E-1,2.7031747E-1,2.0891912E-1,6.4323016E-2,-4.1895E-3,9.754894E-2,-3.3240008E-1,-4.327539E-3,6.595474E-2,3.8078293E-1,6.866023E-2,2.589124E-1,-2.1357065E-1,1.9527489E-1,3.959429E-2,2.7248678E-1,2.1724394E-1,1.19076684E-1,-6.9477096E-2,2.6320943E-1,1.8768048E-1,-1.8797195E-1],"split_indices":[0,4,4,3,0,3,3,1,0,0,0,0,1,2,0,0,0,1,1,0,0,0,1,0,5,1,3,0,5,0,0,0,1,0,0,1,0,0,0,1,0,0,0,0,0,0,0,0,0,0,0,0,0,0,0,0,0,0,0,0,0,0,0,0,0,0,0],"split_type":[0,0,0,0,0,0,0,0,0,0,0,0,0,0,0,0,0,0,0,0,0,0,0,0,0,0,0,0,0,0,0,0,0,0,0,0,0,0,0,0,0,0,0,0,0,0,0,0,0,0,0,0,0,0,0,0,0,0,0,0,0,0,0,0,0,0,0],"sum_hessian":[1.8493638E3,2.2123116E2,1.6281327E3,2.025068E2,1.8724346E1,1.5013506E3,1.2678212E2,1.9009483E2,1.2411967E1,1.4085115E3,9.2839096E1,9.935217E1,2.7429949E1,1.8616276E1,1.7147856E2,1.404262E3,4.249449E0,7.836568E1,1.4473421E1,8.3927315E1,1.5424857E1,1.9297733E1,8.1322155E0,1.5276531E1,3.3397443E0,1.3350769E2,3.7970875E1,1.3952633E3,8.998674E0,2.999608E0,1.2498409E0,6.3303097E1,1.5062576E1,1.0438412E0,1.342958E1,8.244416E1,1.48315E0,5.621831E0,9.803026E0,4.9856796E0,3.1465364E0,1.0592932E1,4.683599E0,1.961669E0,1.3780754E0,5.410794E1,7.939974E1,2.9664677E1,8.306199E0,1.3795153E3,1.57480545E1,3.499684E0,5.4989905E0,1.2498409E0,1.7497672E0,3.1973617E0,6.0105736E1,1.0595562E0,1.400302E1,5.338889E0,8.090691E0,5.7249863E1,2.51943E1,1.7347041E0,8.068322E0,3.8716671E0,1.1140125E0],"tree_param":{"num_deleted":"0","num_feature":"6","num_nodes":"67","size_leaf_vector":"0"}},{"base_weights":[1.3394201E-1,6.831696E-1,6.732014E-2,6.506113E-1,1.000702E0,2.6664685E-2,5.9528226E-1,6.231039E-1,1.010029E0,3.9181748E-1,1.0429959E0,-7.570506E-3,6.0598385E-1,5.297361E-1,8.172284E-1,5.36831E-1,6.9985014E-1,-4.8799533E-2,2.0547519E-2,5.355615E-1,7.7729523E-1,4.7504732E-1,7.870133E-1,9.221476E-1,5.3194046E-1,-3.4412354E-1,5.678327E-1,9.762394E-1,6.2285674E-1,-5.4845657E-2,8.8848644E-1,2.1862116E-1,4.5021367E-3,6.100537E-1,2.948588E-1,4.445141E-2,8.6399174E-1,4.9587882E-1,-3.2680556E-1,1.048323E0,5.5570894E-1,1.045417E0,2.8908235E-1,-7.6307577E-1,8.196056E-1,-6.940241E-1,2.1557434E-1,7.792016E-1,4.213157E-1,4.1717395E-1,1.0658509E0,3.730784E-1,6.8589354E-1,-7.092838E-2,1.194969E-1,3.4412795E-1,1.0972419E0,-9.971103E-1,2.9561943E-1,-6.2183267E-1,1.3668707E-2,7.935924E-1,3.6838797E-1,-3.5337308E-1,5.661718E-1,7.374325E-1,-6.16926E-1,9.8288494E-1,3.3550075E-1,5.812284E-1,2.9796115E-1,4.8059225E-2,8.898266E-1,-5.097621E-1,7.9197115E-1,1.0012034E0,2.5835434E-1],"categories":[],"categories_nodes":[],"categories_segments":[],"categories_sizes":[],"default_left":[1,1,1,1,1,1,1,1,0,0,0,1,1,1,1,1,1,1,1,1,1,1,1,1,1,1,1,1,1,1,1,1,1,1,1,1,1,1,0,0,1,0,1,0,1,0,0,0,0,0,0,0,0,0,0,0,0,0,0,0,0,0,0,0,0,0,0,0,0,0,0,0,0,0,0,0,0],"id":4,"left_children":[1,3,5,7,9,11,13,15,-1,-1,-1,17,19,21,23,25,27,29,31,33,35,37,39,41,43,45,47,49,51,53,55,57,59,61,63,65,67,69,-1,-1,71,-1,73,-1,75,-1,-1,-1,-1,-1,-1,-1,-1,-1,-1,-1,-1,-1,-1,-1,-1,-1,-1,-1,-1,-1,-1,-1,-1,-1,-1,-1,-1,-1,-1,-1,-1],"loss_changes":[6.576842E1,1.3594055E0,3.4439056E1,1.1427536E0,9.216309E-3,2.9585249E1,1.236042E0,7.4398804E-1,0E0,0E0,0E0,1.6347108E0,5.878582E-1,9.122791E-1,2.3722649E-1,2.4869785E0,1.2263565E0,3.2885256E0,2.6640515E0,9.354248E-1,1.3614244E0,1.4634132E0,2.9394913E-1,9.7860336E-1,3.941187E0,8.301581E-1,2.193573E0,4.0797997E-1,8.491707E-1,1.6038345E0,4.5408726E-2,6.174995E0,4.4679604E0,1.7730694E0,3.1259112E0,2.006352E0,9.0476894E-1,1.1162376E0,0E0,0E0,1.6229494E0,0E0,2.0336215E0,0E0,5.327611E-1,0E0,0E0,0E0,0E0,0E0,0E0,0E0,0E0,0E0,0E0,0E0,0E0,0E0,0E0,0E0,0E0,0E0,0E0,0E0,0E0,0E0,0E0,0E0,0E0,0E0,0E0,0E0,0E0,0E0,0E0,0E0,0E0],"parents":[2147483647,0,0,1,1,2,2,3,3,4,4,5,5,6,6,7,7,11,11,12,12,13,13,14,14,15,15,16,16,17,17,18,18,19,19,20,20,21,21,22,22,23,23,24,24,25,25,26,26,27,27,28,28,29,29,30,30,31,31,32,32,33,33,34,34,35,35,36,36,37,37,40,40,42,42,44,44],"right_children":[2,4,6,8,10,12,14,16,-1,-1,-1,18,20,22,24,26,28,30,32,34,36,38,40,42,44,46,48,50,52,54,56,58,60,62,64,66,68,70,-1,-1,72,-1,74,-1,76,-1,-1,-1,-1,-1,-1,-1,-1,-1,-1,-1,-1,-1,-1,-1,-1,-1,-1,-1,-1,-1,-1,-1,-1,-1,-1,-1,-1,-1,-1,-1,-1],"split_conditions":[3.05E1,5E-1,5E-1,2.5E0,8.269775E3,2.5E0,1.5E0,2.013029E4,3.030087E-1,1.1754525E-1,3.1289878E-1,5E-1,3.5E0,3.97E2,2.18E2,5E-1,5.5E0,1.089E3,5.592407E3,2.7885883E4,6.2E1,3.8E2,4.8E2,3.1426031E4,2.485E2,5E-1,1.15E1,1.5E0,1.05E1,5.205E2,1.5E5,3.9E1,6.4942363E3,1.725E2,1.1E2,1.5E5,3.935E2,2.6058754E4,-9.8041676E-2,3.1449693E-1,5.995E2,3.136251E-1,3.362815E4,-2.2892274E-1,2.528554E4,-2.0820723E-1,6.4672306E-2,2.3376049E-1,1.2639472E-1,1.2515219E-1,3.1975526E-1,1.1192352E-1,2.0576806E-1,-2.1278515E-2,3.5849072E-2,1.0323839E-1,3.2917258E-1,-2.991331E-1,8.868583E-2,-1.8654981E-1,4.1006124E-3,2.3807773E-1,1.1051639E-1,-1.0601193E-1,1.6985156E-1,2.2122975E-1,-1.8507782E-1,2.948655E-1,1.0065023E-1,1.7436852E-1,8.938835E-2,1.4417768E-2,2.6694798E-1,-1.5292864E-1,2.3759136E-1,3.0036104E-1,7.7506304E-2],"split_indices":[0,4,4,3,1,3,3,1,0,0,0,3,5,0,0,0,0,0,1,1,0,0,0,1,0,3,0,5,0,0,2,0,1,0,0,2,0,1,0,0,0,0,1,0,1,0,0,0,0,0,0,0,0,0,0,0,0,0,0,0,0,0,0,0,0,0,0,0,0,0,0,0,0,0,0,0,0],"split_type":[0,0,0,0,0,0,0,0,0,0,0,0,0,0,0,0,0,0,0,0,0,0,0,0,0,0,0,0,0,0,0,0,0,0,0,0,0,0,0,0,0,0,0,0,0,0,0,0,0,0,0,0,0,0,0,0,0,0,0,0,0,0,0,0,0,0,0,0,0,0,0,0,0,0,0,0,0],"sum_hessian":[1.7976711E3,1.9346884E2,1.6042023E3,1.7824173E2,1.5227101E1,1.4904792E3,1.13723076E2,1.6810944E2,1.0132298E1,1.65565E0,1.3571451E1,1.4082451E3,8.22341E1,9.040964E1,2.3313438E1,8.290648E1,8.520296E1,5.707004E2,8.3754474E2,6.1201675E1,2.1032427E1,7.690796E1,1.350168E1,1.5412794E1,7.9006443E0,2.475026E0,8.043145E1,1.601895E1,6.9184006E1,5.67978E2,2.7223554E0,6.1816784E1,7.7572797E2,4.556564E1,1.5636034E1,2.384979E0,1.864745E1,7.5332466E1,1.5754911E0,4.6811056E0,8.820576E0,1.2355579E1,3.057215E0,1.1356229E0,6.7650213E0,1.3752669E0,1.0997591E0,3.1160458E1,4.9270996E1,2.9941962E0,1.3024754E1,1.5335746E1,5.3848263E1,5.2055145E2,4.7426563E1,1.4887388E0,1.2336165E0,2.9702058E0,5.8846577E1,1.0225152E1,7.655028E2,2.459929E1,2.0966349E1,4.5241933E0,1.1111841E1,1.1085073E0,1.2764716E0,1.4520921E1,4.126528E0,5.128131E1,2.4051155E1,3.9551148E0,4.8654604E0,1.1757908E0,1.8814243E0,4.518986E0,2.246035E0],"tree_param":{"num_deleted":"0","num_feature":"6","num_nodes":"77","size_leaf_vector":"0"}},{"base_weights":[1.0097422E-1,5.662515E-1,5.0495144E-2,5.3348166E-1,9.143471E-1,2.0023724E-2,4.84636E-1,5.0642806E-1,9.1998345E-1,3.3645195E-1,9.608295E-1,-5.2711777E-3,4.9317917E-1,4.2055026E-1,7.19342E-1,5.945653E-1,4.0879834E-1,1.0265026E0,4.1364956E-1,1.0675841E-2,-6.928892E-2,4.2708182E-1,6.6175276E-1,3.3080146E-1,5.851862E-1,8.2996064E-1,4.4403526E-1,1.0724811E-2,6.153884E-1,2.53448E-1,5.490352E-1,-1.2600864E-3,2.9847828E-1,-9.702524E-1,-4.613269E-2,-1.9148336E-1,4.493323E-1,1.3781928E-1,7.7402276E-1,3.725365E-1,-4.1753063E-1,1.0731456E0,4.0708992E-1,9.572801E-1,2.4713314E-1,-7.251003E-1,7.393317E-1,-6.9381523E-1,6.958916E-1,7.84146E-1,4.895591E-1,4.9320775E-1,1.6376145E-2,9.6692115E-1,4.0013772E-1,-4.6447657E-2,4.7463335E-2,4.4246873E-1,-2.3272589E-1,-2.940813E-1,-1.1816174E0,-1.1370342E-1,1.6695227E-1,5.2939504E-1,1.7134812E-1,-3.211086E-1,7.4265003E-1,9.204024E-1,2.6650795E-1,4.2695487E-1,-1.9051461E-1,-6.921222E-1,-1.1060779E-3,-1.999568E-1,6.3882715E-1,-4.1843542E-1,7.187252E-1,9.284091E-1,2.1261132E-1],"categories":[],"categories_nodes":[],"categories_segments":[],"categories_sizes":[],"default_left":[1,1,1,1,1,1,1,1,0,0,1,1,1,1,1,1,1,0,0,1,1,1,1,1,1,1,1,1,1,1,1,1,1,1,1,0,1,1,1,1,1,0,1,0,1,0,1,0,0,0,0,0,0,0,0,0,0,0,0,0,0,0,0,0,0,0,0,0,0,0,0,0,0,0,0,0,0,0,0],"id":5,"left_children":[1,3,5,7,9,11,13,15,-1,-1,17,19,21,23,25,27,29,-1,-1,31,33,35,37,39,41,43,45,47,49,51,53,55,57,59,61,-1,63,65,67,69,71,-1,73,-1,75,-1,77,-1,-1,-1,-1,-1,-1,-1,-1,-1,-1,-1,-1,-1,-1,-1,-1,-1,-1,-1,-1,-1,-1,-1,-1,-1,-1,-1,-1,-1,-1,-1,-1],"loss_changes":[4.1232887E1,1.4724731E0,2.0970655E1,1.2014656E0,3.6276817E-2,1.7751516E1,1.2613373E0,1.0584602E0,0E0,0E0,1.2083054E-3,1.4388825E0,5.5602837E-1,1.0487509E0,2.677288E-1,9.330578E-1,1.493989E0,0E0,0E0,3.8774855E0,5.81911E0,8.690033E-1,1.033289E0,1.9268603E0,2.0279884E0,7.840023E-1,3.3460212E0,2.258993E0,1.2004681E0,2.1190393E0,2.0111847E0,2.3903742E0,3.5409832E0,6.519308E-1,3.9795787E0,0E0,1.1380777E0,1.5254619E0,9.242735E-1,1.7435102E0,3.9573085E-1,0E0,3.2774973E0,0E0,1.4978049E0,0E0,4.9904656E-1,0E0,0E0,0E0,0E0,0E0,0E0,0E0,0E0,0E0,0E0,0E0,0E0,0E0,0E0,0E0,0E0,0E0,0E0,0E0,0E0,0E0,0E0,0E0,0E0,0E0,0E0,0E0,0E0,0E0,0E0,0E0,0E0],"parents":[2147483647,0,0,1,1,2,2,3,3,4,4,5,5,6,6,7,7,10,10,11,11,12,12,13,13,14,14,15,15,16,16,19,19,20,20,21,21,22,22,23,23,24,24,25,25,26,26,27,27,28,28,29,29,30,30,31,31,32,32,33,33,34,34,36,36,37,37,38,38,39,39,40,40,42,42,44,44,46,46],"right_children":[2,4,6,8,10,12,14,16,-1,-1,18,20,22,24,26,28,30,-1,-1,32,34,36,38,40,42,44,46,48,50,52,54,56,58,60,62,-1,64,66,68,70,72,-1,74,-1,76,-1,78,-1,-1,-1,-1,-1,-1,-1,-1,-1,-1,-1,-1,-1,-1,-1,-1,-1,-1,-1,-1,-1,-1,-1,-1,-1,-1,-1,-1,-1,-1,-1,-1],"split_conditions":[3.05E1,5E-1,5E-1,2.5E0,8.269775E3,2.5E0,1.5E0,2.5E0,2.7599505E-1,1.00935586E-1,3.5E5,2.8446123E4,3.5E0,2.415E2,2.18E2,5E-1,2.013029E4,3.079508E-1,1.2409487E-1,2.7345355E4,2.8585184E4,3.45E1,7.95E1,2.325E2,2.83E2,3.1426031E4,2.4E2,1.5618466E4,5E-1,1.26543955E4,2.278275E4,2.5E0,3.5E0,8.55E1,2.895E2,-5.7445012E-2,3.5E0,2.2753057E4,3.935E2,3.4307453E4,2.36E2,3.219437E-1,3.49E2,2.8718403E-1,3.362815E4,-2.1753009E-1,2.528554E4,-2.0814458E-1,2.0876749E-1,2.3524381E-1,1.4686774E-1,1.4796233E-1,4.912844E-3,2.9007635E-1,1.2004132E-1,-1.39342975E-2,1.4239001E-2,1.3274063E-1,-6.981777E-2,-8.8224396E-2,-3.544852E-1,-3.4111027E-2,5.0085682E-2,1.5881851E-1,5.140444E-2,-9.633259E-2,2.2279502E-1,2.7612072E-1,7.995239E-2,1.2808646E-1,-5.7154384E-2,-2.0763667E-1,-3.318234E-4,-5.9987042E-2,1.9164816E-1,-1.2553063E-1,2.1561757E-1,2.7852273E-1,6.37834E-2],"split_indices":[0,4,4,3,1,3,3,5,0,0,2,1,5,0,0,0,1,0,0,1,1,0,0,0,0,1,0,1,3,1,1,5,5,0,0,0,3,1,0,1,0,0,0,0,1,0,1,0,0,0,0,0,0,0,0,0,0,0,0,0,0,0,0,0,0,0,0,0,0,0,0,0,0,0,0,0,0,0,0],"split_type":[0,0,0,0,0,0,0,0,0,0,0,0,0,0,0,0,0,0,0,0,0,0,0,0,0,0,0,0,0,0,0,0,0,0,0,0,0,0,0,0,0,0,0,0,0,0,0,0,0,0,0,0,0,0,0,0,0,0,0,0,0,0,0,0,0,0,0,0,0,0,0,0,0,0,0,0,0,0,0],"sum_hessian":[1.7557966E3,1.7084659E2,1.5849501E3,1.5846152E2,1.2385063E1,1.4819792E3,1.0297083E2,1.5025458E2,8.206944E0,1.5353239E0,1.0849739E1,1.4077118E3,7.426745E1,8.3078354E1,1.9892479E1,7.629118E1,7.3963394E1,8.904968E0,1.9447709E0,1.1276451E3,2.8006668E2,5.5887558E1,1.8379889E1,5.571529E1,2.7363064E1,1.2753449E1,7.13903E0,2.6794527E0,7.361173E1,3.6422688E1,3.7540703E1,1.0836969E3,4.394816E1,5.992937E0,2.7407373E2,1.6764444E0,5.4211113E1,3.636572E0,1.4743317E1,5.3247795E1,2.467494E0,5.972787E0,2.1390276E1,9.939645E0,2.8138041E0,1.1460598E0,5.9929705E0,1.3148266E0,1.364626E0,2.9207655E1,4.4404076E1,1.7571526E1,1.8851162E1,8.4189E0,2.9121803E1,5.622739E2,5.2142303E2,3.4707294E1,9.240862E0,1.9966997E0,3.9962375E0,2.0844179E2,6.563196E1,4.1386814E1,1.2824302E1,2.334395E0,1.3021771E0,1.0811477E1,3.931841E0,4.877541E1,4.472385E0,1.0880027E0,1.3794913E0,5.947543E0,1.5442733E1,1.2136582E0,1.6001459E0,3.8487558E0,2.1442144E0],"tree_param":{"num_deleted":"0","num_feature":"6","num_nodes":"79","size_leaf_vector":"0"}},{"base_weights":[7.57277E-2,4.8245603E-1,3.8257428E-2,4.5211235E-1,8.256021E-1,1.7992865E-2,4.4467163E-1,4.276111E-1,8.258442E-1,2.8882143E-1,8.7814564E-1,-3.558036E-3,3.5605994E-1,4.911531E-1,9.2982545E-2,3.3701432E-1,5.174373E-1,2.9916868E-1,9.2046124E-1,9.5682144E-1,3.2860413E-1,-7.1442663E-3,2.547207E-1,3.1115755E-1,8.306782E-1,4.3483543E-1,9.783251E-1,-7.625028E-1,3.4393218E-1,6.4100015E-1,1.7505418E-1,3.4217668E-1,7.821842E-1,-4.1415934E-3,-6.012974E-1,-4.1697738E-1,4.8293325E-1,3.4937206E-1,-5.6974304E-1,4.0027052E-1,9.950731E-1,5.0435674E-1,2.1553327E-1,-3.7841558E-1,7.030575E-1,4.284579E-1,1.0311544E0,2.4217081E-1,-8.22464E-1,-8.3471906E-1,4.094825E-1,9.430237E-1,5.5055696E-1,-7.30117E-3,8.782937E-1,-1.0889522E0,2.1232858E-2,-9.177686E-1,7.067775E-1,1.0201576E0,1.3619694E-1,9.055251E-1,3.1737027E-1,-1.1945611E0,1.088609E-1,6.740549E-1,4.4401195E-3,4.0234306E-1,8.5781235E-1,-2.4663602E-1,4.8234078E-1,-8.686761E-1,3.5887912E-1,7.897199E-1,1.565845E-1],"categories":[],"categories_nodes":[],"categories_segments":[],"categories_sizes":[],"default_left":[1,1,1,1,1,1,1,1,1,0,1,1,1,1,1,1,1,0,0,0,0,1,1,1,1,1,0,0,1,1,1,1,1,1,1,1,1,1,1,1,0,1,1,1,1,0,0,0,0,0,0,0,0,0,0,0,0,0,0,0,0,0,0,0,0,0,0,0,0,0,0,0,0,0,0],"id":6,"left_children":[1,3,5,7,9,11,13,15,17,-1,19,21,23,25,27,29,31,-1,-1,-1,-1,33,35,37,39,41,-1,-1,43,45,47,49,51,53,55,57,59,61,63,65,-1,67,69,71,73,-1,-1,-1,-1,-1,-1,-1,-1,-1,-1,-1,-1,-1,-1,-1,-1,-1,-1,-1,-1,-1,-1,-1,-1,-1,-1,-1,-1,-1,-1],"loss_changes":[2.6245838E1,1.1395111E0,1.2996888E1,8.8939476E-1,4.514551E-2,1.0966996E1,1.1795988E0,8.7882423E-1,8.714676E-2,0E0,8.1561565E-2,1.3132986E0,1.6639776E0,1.384572E0,2.4055276E0,3.2012644E0,2.6610107E0,0E0,0E0,0E0,0E0,2.4906945E0,3.177966E0,3.0270758E0,1.1098814E-1,8.203087E-1,0E0,0E0,2.4472582E0,1.4669247E0,3.230897E0,3.4908705E0,3.8845253E-1,3.885995E0,2.1542645E0,3.7219064E0,2.647194E0,1.1566706E0,1.7722162E0,3.9389747E-1,0E0,1.2962236E0,2.1429083E0,1.5559976E0,1.5888476E-1,0E0,0E0,0E0,0E0,0E0,0E0,0E0,0E0,0E0,0E0,0E0,0E0,0E0,0E0,0E0,0E0,0E0,0E0,0E0,0E0,0E0,0E0,0E0,0E0,0E0,0E0,0E0,0E0,0E0,0E0],"parents":[2147483647,0,0,1,1,2,2,3,3,4,4,5,5,6,6,7,7,8,8,10,10,11,11,12,12,13,13,14,14,15,15,16,16,21,21,22,22,23,23,24,24,25,25,28,28,29,29,30,30,31,31,32,32,33,33,34,34,35,35,36,36,37,37,38,38,39,39,41,41,42,42,43,43,44,44],"right_children":[2,4,6,8,10,12,14,16,18,-1,20,22,24,26,28,30,32,-1,-1,-1,-1,34,36,38,40,42,-1,-1,44,46,48,50,52,54,56,58,60,62,64,66,-1,68,70,72,74,-1,-1,-1,-1,-1,-1,-1,-1,-1,-1,-1,-1,-1,-1,-1,-1,-1,-1,-1,-1,-1,-1,-1,-1,-1,-1,-1,-1,-1,-1],"split_conditions":[2.85E1,5E-1,2.5E0,2.5E0,8.269775E3,5E-1,4.685E2,1.5E5,1.5E0,8.664643E-2,3.5E5,4.1693812E4,3.6833863E4,5E-1,5.305E2,9.5E0,1.75E1,8.97506E-2,2.761384E-1,2.8704643E-1,9.858125E-2,4.071273E4,7.5E4,3.4307453E4,1.575E2,2.7212547E4,2.9349756E-1,-2.2875084E-1,1.8078445E4,3.5E0,3.612026E4,5.3155547E3,2.35E1,4.0199906E4,4.116408E4,3.05E2,1.5E5,3.65E1,1.12E2,7.55E1,2.9852194E-1,2.3389832E4,1.1E2,1.5E0,7.615E2,1.2853737E-1,3.0934632E-1,7.2651245E-2,-2.4673921E-1,-2.5041574E-1,1.22844756E-1,2.8290713E-1,1.651671E-1,-2.190351E-3,2.634881E-1,-3.2668567E-1,6.3698576E-3,-2.753306E-1,2.1203326E-1,3.060473E-1,4.0859085E-2,2.7165753E-1,9.521108E-2,-3.5836834E-1,3.265827E-2,2.0221649E-1,1.3320359E-3,1.2070292E-1,2.573437E-1,-7.399081E-2,1.4470224E-1,-2.6060286E-1,1.0766374E-1,2.3691598E-1,4.6975352E-2],"split_indices":[0,4,3,3,1,4,0,2,5,0,2,1,1,4,0,0,0,0,0,0,0,1,2,1,0,1,0,0,1,5,1,1,0,1,1,0,2,0,0,0,0,1,0,5,0,0,0,0,0,0,0,0,0,0,0,0,0,0,0,0,0,0,0,0,0,0,0,0,0,0,0,0,0,0,0],"split_type":[0,0,0,0,0,0,0,0,0,0,0,0,0,0,0,0,0,0,0,0,0,0,0,0,0,0,0,0,0,0,0,0,0,0,0,0,0,0,0,0,0,0,0,0,0,0,0,0,0,0,0,0,0,0,0,0,0,0,0,0,0,0,0,0,0,0,0,0,0,0,0,0,0,0,0],"sum_hessian":[1.7223539E3,1.4428702E2,1.5780669E3,1.3469386E2,9.593144E0,1.5041133E3,7.395359E1,1.284191E2,6.2747707E0,1.4345623E0,8.158582E0,1.4149061E3,8.920713E1,6.497017E1,8.983421E0,6.630108E1,6.211802E1,1.5894053E0,4.685365E0,6.4885178E0,1.6700642E0,1.3964882E3,1.8418062E1,8.300942E1,6.197708E0,5.993427E1,5.0359006E0,1.575179E0,7.408242E0,2.201777E1,4.4283306E1,3.8754967E1,2.336305E1,1.390468E3,6.020041E0,4.460964E0,1.3957099E1,8.0136406E1,2.8730183E0,2.6622899E0,3.5354185E0,4.4520824E1,1.5413444E1,2.4422216E0,4.96602E0,1.5611403E1,6.4063673E0,4.220109E1,2.0822155E0,1.479681E0,3.7275288E1,1.197585E1,1.1387201E1,1.3864955E3,3.9726477E0,2.955575E0,3.0644658E0,3.2125998E0,1.2483643E0,4.712893E0,9.244206E0,2.8750687E0,7.726134E1,1.0999388E0,1.7730794E0,1.158264E0,1.5040257E0,3.620866E1,8.312164E0,5.6690335E0,9.7444105E0,1.3598212E0,1.0824006E0,3.902087E0,1.0639333E0],"tree_param":{"num_deleted":"0","num_feature":"6","num_nodes":"75","size_leaf_vector":"0"}},{"base_weights":[5.6925643E-2,3.9258844E-1,2.8578162E-2,3.630512E-1,7.5625926E-1,1.3425498E-2,3.586545E-1,3.15232E-1,5.545151E-1,2.478285E-1,8.1359965E-1,-2.3446982E-3,2.768701E-1,4.461892E-1,1.7440651E-1,3.545678E-1,-8.888962E-1,6.656327E-1,2.3574753E-1,9.017183E-1,2.8248546E-1,-3.9416607E-3,5.760972E-1,2.354783E-1,7.413523E-1,3.9437938E-1,8.648044E-1,-7.386276E-1,2.7900296E-1,2.964343E-1,5.6203616E-1,-2.762882E-1,-1.0917995E0,1.2844154E-1,7.348516E-1,-4.2816898E-1,5.885383E-1,3.4703006E-4,-3.344789E-1,1.0205655E0,-2.0505601E-1,3.0928615E-1,-1.2674646E-1,2.1450026E-1,8.208075E-1,2.626323E-1,5.2237546E-1,6.30073E-1,1.3991772E-1,3.3265337E-1,-3.3823898E-1,9.854708E-1,3.2324824E-1,5.783923E-1,-3.8027337E-1,7.9616225E-1,3.82488E-1,-6.926172E-1,7.752924E-2,7.9758644E-1,1.9333422E-1,-3.537614E-3,5.5502313E-1,-8.1646496E-1,-1.2972149E-1,2.6317105E-1,9.7265583E-1,-5.016993E-1,2.1006897E-1,5.668369E-1,-9.666961E-2,-1.687092E-1,6.7934805E-1,4.818199E-2,8.743859E-1,2.4797128E-1,-5.1230574E-1],"categories":[],"categories_nodes":[],"categories_segments":[],"categories_sizes":[],"default_left":[1,1,1,1,1,1,1,1,1,0,1,1,1,1,1,1,1,1,1,0,0,1,1,1,1,1,0,0,1,1,1,0,0,1,1,1,1,1,1,0,0,1,1,0,0,1,1,1,1,0,0,0,0,0,0,0,0,0,0,0,0,0,0,0,0,0,0,0,0,0,0,0,0,0,0,0,0],"id":7,"left_children":[1,3,5,7,9,11,13,15,17,-1,19,21,23,25,27,29,31,33,35,-1,-1,37,39,41,43,45,-1,-1,47,49,51,-1,-1,53,55,57,59,61,63,-1,-1,65,67,-1,-1,69,71,73,75,-1,-1,-1,-1,-1,-1,-1,-1,-1,-1,-1,-1,-1,-1,-1,-1,-1,-1,-1,-1,-1,-1,-1,-1,-1,-1,-1,-1],"loss_changes":[1.6143974E1,1.1448765E0,7.8310423E0,9.617615E-1,6.083536E-2,6.2282066E0,1.0305958E0,5.1297283E0,6.75138E-1,0E0,1.03420734E-1,1.3096483E0,1.4532852E0,6.555004E-1,2.47675E0,1.0291862E0,1.3348103E-1,5.3292084E-1,2.0368571E0,0E0,0E0,2.0022814E0,1.5645181E0,2.1568356E0,9.446263E-2,5.833149E-1,0E0,0E0,9.8893297E-1,1.9414287E0,1.7627759E0,0E0,0E0,9.381077E-1,1.3762474E-2,4.8472303E-1,2.9170334E-1,3.0084395E0,1.679585E0,0E0,0E0,1.7658448E0,1.8882267E0,0E0,0E0,2.575944E0,2.3559265E0,8.071313E-1,1.3310864E0,0E0,0E0,0E0,0E0,0E0,0E0,0E0,0E0,0E0,0E0,0E0,0E0,0E0,0E0,0E0,0E0,0E0,0E0,0E0,0E0,0E0,0E0,0E0,0E0,0E0,0E0,0E0,0E0],"parents":[2147483647,0,0,1,1,2,2,3,3,4,4,5,5,6,6,7,7,8,8,10,10,11,11,12,12,13,13,14,14,15,15,16,16,17,17,18,18,21,21,22,22,23,23,24,24,25,25,28,28,29,29,30,30,33,33,34,34,35,35,36,36,37,37,38,38,41,41,42,42,45,45,46,46,47,47,48,48],"right_children":[2,4,6,8,10,12,14,16,18,-1,20,22,24,26,28,30,32,34,36,-1,-1,38,40,42,44,46,-1,-1,48,50,52,-1,-1,54,56,58,60,62,64,-1,-1,66,68,-1,-1,70,72,74,76,-1,-1,-1,-1,-1,-1,-1,-1,-1,-1,-1,-1,-1,-1,-1,-1,-1,-1,-1,-1,-1,-1,-1,-1,-1,-1,-1,-1],"split_conditions":[2.85E1,5E-1,2.5E0,3.0013598E4,8.269775E3,5E-1,2.525E2,2.9055629E4,3.621554E4,7.4348554E-2,3.5E5,1.193E3,3.6833863E4,5E-1,2.81E2,2.362298E4,2.9552646E4,3.5E0,3.813833E4,2.705155E-1,8.474564E-2,8.53E2,1.353E3,2.9217715E4,8.15E1,1.125E2,2.5944132E-1,-2.215883E-1,3.405E2,2.280924E4,2.5068064E4,-8.2886465E-2,-3.2753986E-1,1.5E5,3.5E5,1.5E5,4.1202234E4,7.815E2,1.3639247E4,3.0616966E-1,-6.1516806E-2,2.800086E4,1.5E5,6.435008E-2,2.4624227E-1,1.5E5,1.1982162E4,1.5E0,3.3187938E4,9.979602E-2,-1.014717E-1,2.9564124E-1,9.697448E-2,1.735177E-1,-1.14082016E-1,2.3884869E-1,1.1474641E-1,-2.0778516E-1,2.3258772E-2,2.3927595E-1,5.800027E-2,-1.0612842E-3,1.6650695E-1,-2.4493949E-1,-3.891645E-2,7.8951314E-2,2.9179677E-1,-1.505098E-1,6.302069E-2,1.7005107E-1,-2.9000884E-2,-5.0612763E-2,2.0380442E-1,1.4454597E-2,2.6231578E-1,7.439139E-2,-1.5369172E-1],"split_indices":[0,4,3,1,1,4,0,1,1,0,2,0,1,4,0,1,1,0,1,0,0,0,0,1,0,0,0,0,0,1,1,0,0,2,2,2,1,0,1,0,0,1,2,0,0,2,1,5,1,0,0,0,0,0,0,0,0,0,0,0,0,0,0,0,0,0,0,0,0,0,0,0,0,0,0,0,0],"split_type":[0,0,0,0,0,0,0,0,0,0,0,0,0,0,0,0,0,0,0,0,0,0,0,0,0,0,0,0,0,0,0,0,0,0,0,0,0,0,0,0,0,0,0,0,0,0,0,0,0,0,0,0,0,0,0,0,0,0,0,0,0,0,0,0,0,0,0,0,0,0,0,0,0,0,0,0,0],"sum_hessian":[1.696831E3,1.3114091E2,1.5656902E3,1.2313798E2,8.002941E0,1.4979645E3,6.77257E1,1.0064721E2,2.2490774E1,1.3504766E0,6.652464E0,1.4142938E3,8.367069E1,4.4949078E1,2.277662E1,9.8146545E1,2.5006576E0,1.5870434E1,6.6203394E0,5.10731E0,1.545154E0,1.4113904E3,2.9033806E0,7.820822E1,5.4624662E0,4.1726864E1,3.2222137E0,1.7180327E0,2.1058588E1,7.856198E1,1.958457E1,1.2097726E0,1.2908851E0,2.1374876E0,1.3732946E1,2.2230747E0,4.3972645E0,1.3942985E3,1.7091944E1,1.6551381E0,1.2482425E0,6.509122E1,1.3117005E1,1.2006736E0,4.2617927E0,2.2066044E1,1.9660822E1,4.9738345E0,1.6084753E1,7.477088E1,3.7911E0,5.9343734E0,1.3650195E1,1.0615737E0,1.0759138E0,1.0624766E1,3.1081803E0,1.217023E0,1.0060517E0,2.2100613E0,2.1872034E0,1.3855881E3,8.71027E0,4.2053475E0,1.2886597E1,6.216635E1,2.9248655E0,5.975436E0,7.141569E0,1.16364155E1,1.0429628E1,3.6253138E0,1.6035507E1,1.8248119E0,3.1490226E0,1.4330442E1,1.7543118E0],"tree_param":{"num_deleted":"0","num_feature":"6","num_nodes":"77","size_leaf_vector":"0"}},{"base_weights":[4.2758074E-2,3.1363985E-1,2.1507416E-2,2.8823927E-1,7.457821E-1,1.0133853E-2,2.863171E-1,4.0910095E-1,2.0639649E-1,2.7126724E-1,8.4466743E-1,-1.5362315E-3,2.153243E-1,2.0902804E-1,4.9842724E-1,2.186994E-1,5.982852E-1,-3.287981E-1,2.5707904E-1,5.5133022E-2,-1.5782015E-2,8.355385E-1,1.8501179E-1,3.880422E-1,5.323993E-2,1.2665443E-1,6.427725E-1,4.3817994E-1,-2.2555622E-1,9.058511E-1,3.3728755E-1,2.9279903E-1,-7.6170707E-1,8.5637975E-1,2.178845E-1,3.6337143E-1,-5.1775593E-2,-4.407675E-1,6.154975E-3,7.70864E-2,4.0129727E-1,5.406848E-1,-1.8795675E-2,-8.605416E-1,1.2344231E-1,5.099337E-1,-2.7707577E-1,8.615985E-1,1.0377493E-1,-4.9691755E-1,5.682047E-1,-4.3954188E-1,3.9295015E-1,-8.021573E-2,7.187081E-1,-3.0958584E-1,6.8817455E-1,-1.4657141E0,7.710846E-2,-8.974057E-1,2.591818E-1,2.9597086E-1,9.3775225E-1,-1.0150433E-1,4.5590007E-1,2.1907435E-1,-5.545443E-1,5.795116E-1,-1.336741E-3,1.7502506E-1,-3.7147942E-1,9.3937695E-1,2.4014568E-1,8.343991E-1,4.9942583E-2,-1.0765456E0,6.021798E-1,2.104379E-1,-7.182296E-1,8.882067E-2,6.58527E-1,2.4221735E-1,-6.952672E-1,-3.8048178E-1,4.778085E-1],"categories":[],"categories_nodes":[],"categories_segments":[],"categories_sizes":[],"default_left":[1,1,1,1,1,1,1,1,1,0,0,1,1,1,1,1,1,1,1,1,1,0,1,1,1,1,1,1,1,0,1,1,1,0,1,1,1,1,1,1,1,1,1,0,1,1,1,0,1,0,0,0,0,0,0,0,0,0,0,0,0,0,0,0,0,0,0,0,0,0,0,0,0,0,0,0,0,0,0,0,0,0,0,0,0],"id":8,"left_children":[1,3,5,7,9,11,13,15,17,-1,-1,19,21,23,25,27,29,31,33,35,37,-1,39,41,43,45,47,49,51,-1,53,55,57,-1,59,61,63,65,67,69,71,73,75,-1,77,79,81,-1,83,-1,-1,-1,-1,-1,-1,-1,-1,-1,-1,-1,-1,-1,-1,-1,-1,-1,-1,-1,-1,-1,-1,-1,-1,-1,-1,-1,-1,-1,-1,-1,-1,-1,-1,-1,-1],"loss_changes":[9.655102E0,1.1244326E0,4.6878004E0,1.071681E0,5.916691E-2,3.5786288E0,9.466572E-1,1.5323076E0,2.0295603E0,0E0,0E0,1.143119E0,1.3573766E0,1.3375912E0,7.984991E-1,2.4962988E0,1.5073576E0,2.0103273E0,1.3652143E0,9.392584E0,1.0551091E1,0E0,1.7888479E0,1.4076345E0,1.8510964E0,1.0436115E0,1.2747102E0,2.3246543E0,1.3361928E0,0E0,2.2568128E0,1.0345027E0,2.5890284E0,0E0,3.150404E0,2.5631695E0,5.400414E0,4.291917E0,4.6265073E0,2.4041975E0,2.0041223E0,2.3218055E0,5.3157277E0,0E0,2.0647163E0,1.5072107E-1,9.258198E-1,0E0,9.9263066E-1,0E0,0E0,0E0,0E0,0E0,0E0,0E0,0E0,0E0,0E0,0E0,0E0,0E0,0E0,0E0,0E0,0E0,0E0,0E0,0E0,0E0,0E0,0E0,0E0,0E0,0E0,0E0,0E0,0E0,0E0,0E0,0E0,0E0,0E0,0E0,0E0],"parents":[2147483647,0,0,1,1,2,2,3,3,4,4,5,5,6,6,7,7,8,8,11,11,12,12,13,13,14,14,15,15,16,16,17,17,18,18,19,19,20,20,22,22,23,23,24,24,25,25,26,26,27,27,28,28,30,30,31,31,32,32,34,34,35,35,36,36,37,37,38,38,39,39,40,40,41,41,42,42,44,44,45,45,46,46,48,48],"right_children":[2,4,6,8,10,12,14,16,18,-1,-1,20,22,24,26,28,30,32,34,36,38,-1,40,42,44,46,48,50,52,-1,54,56,58,-1,60,62,64,66,68,70,72,74,76,-1,78,80,82,-1,84,-1,-1,-1,-1,-1,-1,-1,-1,-1,-1,-1,-1,-1,-1,-1,-1,-1,-1,-1,-1,-1,-1,-1,-1,-1,-1,-1,-1,-1,-1,-1,-1,-1,-1,-1,-1],"split_conditions":[2.85E1,2.5E0,2.5E0,5E-1,1.5E0,5E-1,3.5E0,2.032319E4,5.5242407E3,8.138017E-2,2.5340024E-1,1.1748105E4,3.65E1,1.485E2,9.25E1,1.5656789E4,2.543432E4,1.05E1,8.1794937E3,7.5E4,1.2916629E4,2.5066155E-1,2.415E2,2.7885883E4,1.57E2,1.5E5,3.935E2,5E-1,3.5E0,2.7175534E-1,3.0970344E4,4.5E0,1.65E1,2.5691393E-1,8.936867E3,1.1094341E4,1.1249297E4,6.65E1,1.316385E4,1.955E2,2.83E2,2.5E0,3.0275117E4,-2.581625E-1,4.5E0,2.2012309E4,1.838139E4,2.5847957E-1,4.46E2,-1.4907527E-1,1.7046142E-1,-1.3186257E-1,1.17885046E-1,-2.406472E-2,2.1561244E-1,-9.287576E-2,2.0645237E-1,-4.3971425E-1,2.3132538E-2,-2.6922172E-1,7.775454E-2,8.879126E-2,2.813257E-1,-3.0451301E-2,1.3677002E-1,6.572231E-2,-1.663633E-1,1.7385349E-1,-4.0102232E-4,5.250752E-2,-1.1144383E-1,2.8181309E-1,7.204371E-2,2.5031975E-1,1.4982776E-2,-3.2296368E-1,1.8065396E-1,6.313137E-2,-2.1546888E-1,2.6646202E-2,1.9755812E-1,7.266521E-2,-2.0858017E-1,-1.1414454E-1,1.4334255E-1],"split_indices":[0,3,3,3,5,4,5,1,1,0,0,1,0,0,0,1,1,0,1,2,1,0,0,1,0,2,0,0,5,0,1,0,0,0,1,1,1,0,1,0,0,5,1,0,3,1,1,0,0,0,0,0,0,0,0,0,0,0,0,0,0,0,0,0,0,0,0,0,0,0,0,0,0,0,0,0,0,0,0,0,0,0,0,0,0],"split_type":[0,0,0,0,0,0,0,0,0,0,0,0,0,0,0,0,0,0,0,0,0,0,0,0,0,0,0,0,0,0,0,0,0,0,0,0,0,0,0,0,0,0,0,0,0,0,0,0,0,0,0,0,0,0,0,0,0,0,0,0,0,0,0,0,0,0,0,0,0,0,0,0,0,0,0,0,0,0,0,0,0,0,0,0,0],"sum_hessian":[1.6774482E3,1.2102214E2,1.5564261E3,1.1587803E2,5.144114E0,1.4933262E3,6.310001E1,4.517178E1,7.0706245E1,1.5326644E0,3.6114495E0,1.4139037E3,7.942242E1,4.770327E1,1.5396738E1,2.3588007E1,2.1583773E1,5.6418943E0,6.5064354E1,2.834558E2,1.1304479E3,2.4630287E0,7.695939E1,2.1503284E1,2.6199987E1,4.831154E0,1.0565584E1,1.5797212E1,7.790795E0,8.773795E0,1.28099785E1,2.4490485E0,3.1928458E0,2.7141652E0,6.2350185E1,7.237775E1,2.1107806E2,5.455039E1,1.0758975E3,5.2245537E1,2.4713856E1,1.5397326E1,6.105957E0,1.066036E0,2.5133951E1,2.3434014E0,2.4877524E0,7.0890155E0,3.476569E0,1.5839839E0,1.4213227E1,6.003206E0,1.7875892E0,6.4927263E0,6.317252E0,1.0564495E0,1.3925991E0,1.3295826E0,1.8632632E0,1.4860841E0,6.08641E1,6.6132706E1,6.2450385E0,1.9297546E2,1.810261E1,7.886668E0,4.666372E1,1.2892002E1,1.0630055E3,4.3383183E1,8.862355E0,4.5828214E0,2.0131035E1,9.194214E0,6.2031126E0,1.9872693E0,4.1186876E0,2.3459177E1,1.6747745E0,1.0279465E0,1.315455E0,1.2974409E0,1.1903116E0,1.5075381E0,1.9690309E0],"tree_param":{"num_deleted":"0","num_feature":"6","num_nodes":"85","size_leaf_vector":"0"}},{"base_weights":[3.239056E-2,2.591463E-1,1.7042732E-2,2.2978732E-1,6.414603E-1,6.834145E-3,2.0229976E-1,-1.1407906E-1,2.5870824E-1,1.8894736E-1,7.053761E-1,-5.4892176E-4,1.9123398E-1,8.058512E-1,1.7267554E-1,3.8306293E-1,-7.108095E-1,4.1701552E-1,2.1231033E-1,8.2216424E-1,1.5289265E-1,-1.5876183E-3,6.713087E-1,3.779719E-1,1.1346221E-1,-3.1748977E-1,2.1403812E-1,6.5884954E-1,-3.7141782E-1,-1.2110032E0,2.3157103E-1,-3.604012E-2,7.482219E-1,4.26581E-1,1.3881359E-1,-5.548911E-4,-6.6843903E-1,5.0262845E-1,-4.4313544E-1,-1.0578115E0,2.0488954E-1,5.6427162E-2,-7.323419E-1,1.7948005E-1,6.0659045E-1,-5.474417E-1,1.814671E-1,9.6277213E-1,2.4665187E-1,2.5371528E-1,8.918007E-1,-8.892032E-1,2.0347224E-1,-2.0436388E-3,5.0559366E-1,5.833604E-1,-2.327935E-1,-3.423977E-1,-1.2631963E0,1.3841E-1,8.5108656E-1,7.164546E-1,-5.794399E-1,-8.793701E-1,-2.4945892E-1,2.1920511E-1,-5.4974014E-1,1.6334532E-1,8.2342976E-1],"categories":[],"categories_nodes":[],"categories_segments":[],"categories_sizes":[],"default_left":[1,1,1,1,1,1,1,1,1,0,1,1,1,0,1,1,1,1,1,0,0,1,0,1,1,1,1,0,0,0,0,1,1,1,1,1,0,1,0,1,1,1,1,1,1,0,0,0,0,0,0,0,0,0,0,0,0,0,0,0,0,0,0,0,0,0,0,0,0],"id":9,"left_children":[1,3,5,7,9,11,13,15,17,-1,19,21,23,-1,25,27,29,31,33,-1,-1,35,-1,37,39,41,43,-1,-1,-1,-1,45,47,49,51,53,-1,55,-1,57,59,61,63,65,67,-1,-1,-1,-1,-1,-1,-1,-1,-1,-1,-1,-1,-1,-1,-1,-1,-1,-1,-1,-1,-1,-1,-1,-1],"loss_changes":[5.7817855E0,1.0348392E0,2.9456444E0,1.0177865E0,6.7833185E-2,2.0122056E0,1.3153491E0,2.7652612E0,5.8700323E-1,0E0,2.438209E-1,9.934357E-1,7.834487E-1,0E0,1.6659043E0,1.3337953E0,2.2457738E0,2.9993682E0,1.0929589E0,0E0,0E0,9.781193E-1,0E0,1.8911917E0,4.671321E0,1.0551876E0,8.8523126E-1,0E0,0E0,0E0,0E0,1.1359951E0,9.989023E-1,1.2376735E0,3.9005203E0,1.0707656E0,0E0,1.003855E0,0E0,3.3888817E-2,1.5758047E0,2.247531E0,5.690217E-3,2.1126797E0,3.949771E-1,0E0,0E0,0E0,0E0,0E0,0E0,0E0,0E0,0E0,0E0,0E0,0E0,0E0,0E0,0E0,0E0,0E0,0E0,0E0,0E0,0E0,0E0,0E0,0E0],"parents":[2147483647,0,0,1,1,2,2,3,3,4,4,5,5,6,6,7,7,8,8,10,10,11,11,12,12,14,14,15,15,16,16,17,17,18,18,21,21,23,23,24,24,25,25,26,26,31,31,32,32,33,33,34,34,35,35,37,37,39,39,40,40,41,41,42,42,43,43,44,44],"right_children":[2,4,6,8,10,12,14,16,18,-1,20,22,24,-1,26,28,30,32,34,-1,-1,36,-1,38,40,42,44,-1,-1,-1,-1,46,48,50,52,54,-1,56,-1,58,60,62,64,66,68,-1,-1,-1,-1,-1,-1,-1,-1,-1,-1,-1,-1,-1,-1,-1,-1,-1,-1,-1,-1,-1,-1,-1,-1],"split_conditions":[2.65E1,5E-1,5E-1,5.2700483E3,8.269775E3,2.5E0,3.65E1,2.365332E3,5.5E0,5.668421E-2,3.5E5,5.12718E4,1.4977107E4,2.4175538E-1,4.75E1,3.5E0,1.65E1,1.8654783E4,1.43631455E4,2.4664928E-1,4.5867797E-2,4.902376E4,2.0139262E-1,5.29E2,1.5905751E4,4.15E1,3.6832547E4,1.9765487E-1,-1.1142535E-1,-3.6330098E-1,6.9471315E-2,7.5E4,2.9673787E4,3.5E5,1.5319139E4,4.6149117E4,-2.0053172E-1,4.5E0,-1.3294064E-1,2.5E0,5.89E2,2.0666361E4,2.2184486E4,3.4307453E4,1.575E2,-1.6423252E-1,5.4440133E-2,2.8883165E-1,7.399557E-2,7.611459E-2,2.6754022E-1,-2.6676098E-1,6.1041676E-2,-6.130917E-4,1.516781E-1,1.7500812E-1,-6.9838054E-2,-1.02719314E-1,-3.789589E-1,4.1523002E-2,2.5532597E-1,2.1493639E-1,-1.7383197E-1,-2.6381105E-1,-7.483768E-2,6.576154E-2,-1.6492204E-1,4.9003597E-2,2.4702893E-1],"split_indices":[0,4,4,1,1,3,0,1,0,0,2,1,1,0,0,5,0,1,1,0,0,1,0,0,1,0,1,0,0,0,0,2,1,2,1,1,0,3,0,5,0,1,1,1,0,0,0,0,0,0,0,0,0,0,0,0,0,0,0,0,0,0,0,0,0,0,0,0,0],"split_type":[0,0,0,0,0,0,0,0,0,0,0,0,0,0,0,0,0,0,0,0,0,0,0,0,0,0,0,0,0,0,0,0,0,0,0,0,0,0,0,0,0,0,0,0,0,0,0,0,0,0,0,0,0,0,0,0,0,0,0,0,0,0,0,0,0,0,0,0,0],"sum_hessian":[1.661602E3,1.0432801E2,1.557274E3,9.837459E1,5.9534245E0,1.476925E3,8.0349045E1,7.4034867E0,9.09711E1,1.2264633E0,4.726961E0,1.4210265E3,5.5898544E1,2.5333416E0,7.7815704E1,4.2340894E0,3.1693974E0,1.8808767E1,7.216233E1,3.4991577E0,1.2278036E0,1.419829E3,1.1974285E0,1.5300491E1,4.0598057E1,5.535986E0,7.227972E1,3.193511E0,1.0405782E0,1.8842399E0,1.2851574E0,8.319604E0,1.0489163E1,1.7203518E1,5.4958817E1,1.4186328E3,1.19615E0,1.362055E1,1.6799408E0,2.1742182E0,3.8423836E1,3.3660555E0,2.1699307E0,6.7770775E1,4.5089407E0,2.0299377E0,6.289666E0,6.7025714E0,3.7865918E0,1.3669565E1,3.5339518E0,2.497556E0,5.246126E1,1.4154655E3,3.167383E0,1.2459554E1,1.160997E0,1.0798604E0,1.0943576E0,3.5940533E1,2.4833026E0,1.5894628E0,1.7765926E0,1.0340115E0,1.1359192E0,6.4932884E1,2.8378923E0,2.0571613E0,2.4517796E0],"tree_param":{"num_deleted":"0","num_feature":"6","num_nodes":"69","size_leaf_vector":"0"}},{"base_weights":[2.397492E-2,1.8824711E-1,1.0728835E-2,1.6241033E-1,7.051437E-1,-2.1445224E-1,1.5133427E-2,3.0729467E-1,7.4764624E-2,1.2449056E-1,8.3618206E-1,2.8816313E-1,-7.7227193E-1,6.169707E-1,1.1297325E-2,1.8407923E-1,5.19552E-1,-3.3643606E-1,1.1816303E-1,-2.3631665E-1,6.963536E-1,-9.9666774E-1,-3.9060447E-1,9.5353526E-1,2.2789091E-1,9.946477E-3,9.148444E-1,-8.984103E-2,4.201964E-1,9.2411745E-1,1.3834225E-1,3.2525802E-1,-7.2909033E-1,7.5298816E-1,8.759569E-2,-7.8791815E-1,4.400558E-2,1.0066729E0,1.1769843E-1,-2.3412707E-1,-1.1995236E0,-9.048917E-1,1.5913184E-1,-1.0895499E-1,3.5597175E-1,-2.5969708E-1,1.3974105E-2,1.7058384E-1,-7.739231E-1,5.7341087E-1,-2.1957538E-1,2.5828525E-1,1.0395124E0,8.0255646E-1,-2.1880367E-1,-2.6837763E-1,6.8400085E-1,-9.196307E-1,-8.0717325E-2,-7.229109E-1,1.19582094E-1,4.941479E-1,-5.690714E-1,-4.391384E-1,5.557347E-1,-4.0518168E-1,7.1831316E-1,-3.3522847E-1,7.2094864E-1,4.3553734E-1,-5.526107E-1,1.7857988E-1,1.5993098E-3],"categories":[],"categories_nodes":[],"categories_segments":[],"categories_sizes":[],"default_left":[1,1,1,1,1,1,1,1,1,0,0,1,1,1,1,1,1,1,1,1,1,1,1,0,1,1,0,1,1,1,1,1,1,0,1,0,1,0,1,0,0,0,1,0,1,1,1,0,0,0,0,0,0,0,0,0,0,0,0,0,0,0,0,0,0,0,0,0,0,0,0,0,0],"id":10,"left_children":[1,3,5,7,9,11,13,15,17,-1,-1,19,21,23,25,27,29,31,33,35,37,39,41,-1,43,45,-1,47,49,51,53,55,57,-1,59,-1,61,-1,63,-1,-1,-1,65,-1,67,69,71,-1,-1,-1,-1,-1,-1,-1,-1,-1,-1,-1,-1,-1,-1,-1,-1,-1,-1,-1,-1,-1,-1,-1,-1,-1,-1],"loss_changes":[3.5902753E0,1.5298262E0,1.5195284E0,1.4826133E0,3.1911778E-1,8.464077E0,3.4569643E0,1.0647349E0,1.3816675E0,0E0,0E0,3.6308675E0,8.272171E-1,1.024653E0,1.8118368E0,1.9535469E0,2.3007503E0,2.1698086E0,1.2682805E0,1.2458242E0,1.561965E0,1.0031481E0,2.0958135E0,0E0,2.8526136E-1,1.6225395E0,0E0,2.7217348E0,1.7025256E0,3.0495644E-1,2.3778865E0,9.207905E-1,5.406134E-1,0E0,1.8164557E0,0E0,1.9758304E0,0E0,1.317062E0,0E0,0E0,0E0,1.6123544E0,0E0,1.3449836E0,4.7186832E0,2.9934123E0,0E0,0E0,0E0,0E0,0E0,0E0,0E0,0E0,0E0,0E0,0E0,0E0,0E0,0E0,0E0,0E0,0E0,0E0,0E0,0E0,0E0,0E0,0E0,0E0,0E0,0E0],"parents":[2147483647,0,0,1,1,2,2,3,3,4,4,5,5,6,6,7,7,8,8,11,11,12,12,13,13,14,14,15,15,16,16,17,17,18,18,19,19,20,20,21,21,22,22,24,24,25,25,27,27,28,28,29,29,30,30,31,31,32,32,34,34,36,36,38,38,42,42,44,44,45,45,46,46],"right_children":[2,4,6,8,10,12,14,16,18,-1,-1,20,22,24,26,28,30,32,34,36,38,40,42,-1,44,46,-1,48,50,52,54,56,58,-1,60,-1,62,-1,64,-1,-1,-1,66,-1,68,70,72,-1,-1,-1,-1,-1,-1,-1,-1,-1,-1,-1,-1,-1,-1,-1,-1,-1,-1,-1,-1,-1,-1,-1,-1,-1,-1],"split_conditions":[3.15E1,2.5E0,3.55E1,5E-1,9.5E0,1.5E5,3.65E1,2.05E1,5.7993647E3,3.7347168E-2,2.5085464E-1,2.5E0,2.2396648E4,1.5E5,5.12718E4,1.7726371E4,1.8540836E4,1.05E1,8.1794937E3,9.084246E3,3.35E1,5E-1,5E-1,2.860606E-1,1.1385734E4,3.95E1,2.7445334E-1,1.5656789E4,1.65E1,2.25E1,2.45E1,3.5E0,2.45E1,2.2589646E-1,8.936867E3,-2.3637545E-1,2.4566938E4,3.0200186E-1,5E-1,-7.023813E-2,-3.5985708E-1,-2.7146754E-1,3.35E1,-3.2686498E-2,1.5E0,1.5E0,5.35E1,5.1175155E-2,-2.3217694E-1,1.7202327E-1,-6.587262E-2,7.7485576E-2,3.1185374E-1,2.4076694E-1,-6.5641105E-2,-8.051329E-2,2.0520027E-1,-2.7588922E-1,-2.4215199E-2,-2.1687327E-1,3.587463E-2,1.4824438E-1,-1.7072143E-1,-1.3174152E-1,1.6672042E-1,-1.2155451E-1,2.1549396E-1,-1.0056855E-1,2.162846E-1,1.306612E-1,-1.6578321E-1,5.3573966E-2,4.7979297E-4],"split_indices":[0,3,0,3,0,2,0,0,1,0,0,5,1,2,1,1,1,0,1,1,0,3,3,0,1,0,0,1,0,0,0,0,0,0,1,0,1,0,3,0,0,0,0,0,5,5,0,0,0,0,0,0,0,0,0,0,0,0,0,0,0,0,0,0,0,0,0,0,0,0,0,0,0],"split_type":[0,0,0,0,0,0,0,0,0,0,0,0,0,0,0,0,0,0,0,0,0,0,0,0,0,0,0,0,0,0,0,0,0,0,0,0,0,0,0,0,0,0,0,0,0,0,0,0,0,0,0,0,0,0,0,0,0,0,0,0,0,0,0,0,0,0,0,0,0,0,0,0,0],"sum_hessian":[1.6498987E3,1.2212656E2,1.5277721E3,1.1756437E2,4.5621853E0,2.8395348E1,1.4993767E3,4.3368004E1,7.4196365E1,1.1990453E0,3.36314E0,1.5191068E1,1.3204279E1,8.484158E0,1.4908926E3,2.8620844E1,1.4747161E1,6.4385657E0,6.77578E1,6.832772E0,8.358295E0,7.3006296E0,5.9036493E0,3.7712123E0,4.712945E0,1.4896764E3,1.2161322E0,1.3536554E1,1.508429E1,6.463495E0,8.283666E0,2.4617355E0,3.9768302E0,2.027006E0,6.57308E1,1.6922007E0,5.140571E0,4.9591455E0,3.3991501E0,1.9867053E0,5.3139243E0,2.7163825E0,3.187267E0,1.3394881E0,3.3734567E0,2.0989399E1,1.468687E3,1.0347846E1,3.1887083E0,1.22535095E1,2.8307807E0,1.4330463E0,5.0304484E0,2.46051E0,5.8231554E0,1.0221726E0,1.4395629E0,2.7502384E0,1.2265918E0,1.6754646E0,6.405533E1,3.0760305E0,2.0645406E0,1.4955162E0,1.903634E0,1.7234256E0,1.4638414E0,1.1939116E0,2.1795452E0,6.0774865E0,1.4911912E1,1.0175408E2,1.366933E3],"tree_param":{"num_deleted":"0","num_feature":"6","num_nodes":"73","size_leaf_vector":"0"}},{"base_weights":[1.7764835E-2,8.974521E-3,1.83516E-1,1.4976124E-1,1.3171674E-3,6.987617E-1,1.2691975E-1,1.02770984E-1,4.2122406E-1,-2.8356083E-4,4.5758086E-1,1.6965753E-1,7.665095E-1,6.5886065E-2,4.0498522E-1,2.8281793E-1,-6.693818E-2,5.7324255E-1,-1.4279354E-1,2.7284678E-3,-2.58188E-1,-3.1752548E-1,7.689016E-1,3.2599893E-1,8.623571E-1,-3.9901856E-1,1.12534046E-1,8.3030686E-2,6.3377386E-1,-2.680556E-1,3.2580382E-1,-2.051005E-1,2.9644236E-1,7.3628724E-1,2.7604374E-1,-7.335018E-1,5.693134E-1,1.3005189E-3,9.435773E-1,-3.3685103E-1,3.3683196E-1,1.0001845E0,2.3399068E-1,3.161814E-2,-8.603411E-1,2.0198222E-1,-1.2809408E-1,3.1201303E-1,-3.9474204E-1,8.0135286E-2,7.0893204E-1,-2.0385036E-1,3.895783E-1,-3.2608762E-1,5.840324E-1,-3.4435263E-1,5.073879E-1,2.593566E-1,8.474446E-1,-4.0359965E-1,5.635551E-1,5.562784E-2,-1.2307485E-2,-1.3012117E-1,-5.3925306E-1,6.080197E-1,-3.943139E-1,6.1556774E-1,8.508333E-2,-1.1590797E0,6.055593E-2,-3.8140815E-1,5.9290344E-1,8.6625165E-1,2.2478138E-1],"categories":[],"categories_nodes":[],"categories_segments":[],"categories_sizes":[],"default_left":[1,1,1,1,1,1,1,1,1,1,1,0,1,1,1,1,1,1,1,1,1,0,1,0,0,1,1,1,1,0,1,1,1,1,1,0,0,1,0,1,0,0,0,1,0,1,1,1,0,0,1,0,0,0,0,0,0,0,0,0,0,0,0,0,0,0,0,0,0,0,0,0,0,0,0],"id":11,"left_children":[1,3,5,7,9,11,13,15,17,19,21,-1,23,25,27,29,31,33,35,37,39,-1,41,-1,-1,43,45,47,49,-1,51,53,55,57,59,-1,-1,61,-1,63,-1,-1,-1,65,-1,67,69,71,-1,-1,73,-1,-1,-1,-1,-1,-1,-1,-1,-1,-1,-1,-1,-1,-1,-1,-1,-1,-1,-1,-1,-1,-1,-1,-1],"loss_changes":[2.3950377E0,1.6849606E0,2.325596E0,9.85168E-1,1.0836273E0,1.5572E-1,1.260077E0,2.1593716E0,1.0742307E0,1.1498761E0,1.4958348E0,0E0,5.260706E-3,1.419139E0,9.3826604E-1,8.9674306E-1,1.9118364E0,2.4818826E-1,1.7879872E0,1.9646239E0,9.1328275E-1,0E0,2.5996304E-1,0E0,0E0,1.2188548E0,1.2821882E0,8.604303E-1,2.6413918E-1,0E0,1.1656837E0,2.7972655E0,1.6028838E0,6.734228E-2,1.184963E0,0E0,0E0,1.0815454E0,0E0,5.822685E-1,0E0,0E0,0E0,1.2382119E0,0E0,2.0236456E0,3.2656388E0,1.2222593E0,0E0,0E0,3.1284213E-1,0E0,0E0,0E0,0E0,0E0,0E0,0E0,0E0,0E0,0E0,0E0,0E0,0E0,0E0,0E0,0E0,0E0,0E0,0E0,0E0,0E0,0E0,0E0,0E0],"parents":[2147483647,0,0,1,1,2,2,3,3,4,4,5,5,6,6,7,7,8,8,9,9,10,10,12,12,13,13,14,14,15,15,16,16,17,17,18,18,19,19,20,20,22,22,25,25,26,26,27,27,28,28,30,30,31,31,32,32,33,33,34,34,37,37,39,39,43,43,45,45,46,46,47,47,50,50],"right_children":[2,4,6,8,10,12,14,16,18,20,22,-1,24,26,28,30,32,34,36,38,40,-1,42,-1,-1,44,46,48,50,-1,52,54,56,58,60,-1,-1,62,-1,64,-1,-1,-1,66,-1,68,70,72,-1,-1,74,-1,-1,-1,-1,-1,-1,-1,-1,-1,-1,-1,-1,-1,-1,-1,-1,-1,-1,-1,-1,-1,-1,-1,-1],"split_conditions":[5E-1,2.35E1,3.65E1,1.95E1,1.1465E3,8.269775E3,1.5E0,2.5E0,3.087183E4,8.53E2,1.6550494E4,5.089726E-2,1.15E1,4.75E1,2.5E0,5E-1,1.5E0,1.9083875E4,2.5E0,8.345E2,3.321172E4,-9.525765E-2,2.3119064E4,9.779968E-2,2.5870714E-1,4.15E1,3.5E0,2.5534611E4,9.460969E3,-8.041668E-2,5.65567E3,3.3102344E4,9.259285E3,1.0260018E4,2.1275691E4,-2.2005054E-1,1.7079403E-1,1.1689792E4,2.830732E-1,2.0921277E4,1.01049595E-1,3.0005538E-1,7.019721E-2,2.0666361E4,-2.5810233E-1,1.1090383E4,8.583811E3,7.5E4,-1.1842262E-1,2.4040587E-2,3.1426031E4,-6.115511E-2,1.16873495E-1,-9.7826295E-2,1.7520973E-1,-1.03305794E-1,1.5221637E-1,7.780698E-2,2.542334E-1,-1.210799E-1,1.6906655E-1,1.6688352E-2,-3.6922456E-3,-3.9036352E-2,-1.6177592E-1,1.8240592E-1,-1.1829417E-1,1.8467033E-1,2.5525E-2,-3.477239E-1,1.816678E-2,-1.1442245E-1,1.7787103E-1,2.598755E-1,6.7434415E-2],"split_indices":[4,0,0,0,0,1,3,5,1,0,1,0,0,0,5,0,3,1,5,0,1,0,1,0,0,0,5,1,1,0,1,1,1,1,1,0,0,1,0,1,0,0,0,1,0,1,1,2,0,0,1,0,0,0,0,0,0,0,0,0,0,0,0,0,0,0,0,0,0,0,0,0,0,0,0],"split_type":[0,0,0,0,0,0,0,0,0,0,0,0,0,0,0,0,0,0,0,0,0,0,0,0,0,0,0,0,0,0,0,0,0,0,0,0,0,0,0,0,0,0,0,0,0,0,0,0,0,0,0,0,0,0,0,0,0,0,0,0,0,0,0,0,0,0,0,0,0,0,0,0,0,0,0],"sum_hessian":[1.6439398E3,1.5621483E3,8.179156E1,7.9624725E1,1.4825236E3,6.9720826E0,7.481948E1,6.905064E1,1.0574094E1,1.4783364E3,4.187129E0,1.1891526E0,5.7829304E0,6.23672E1,1.2452278E1,3.3181454E1,3.586918E1,8.316271E0,2.2578228E0,1.4622484E3,1.6087967E1,1.1941302E0,2.9929986E0,1.8199158E0,3.9630144E0,4.9983788E0,5.736882E1,5.7390804E0,6.7131977E0,2.0228097E0,3.1158644E1,2.6303717E1,9.565462E0,4.416134E0,3.9001367E0,1.2176834E0,1.0401393E0,1.4610323E3,1.2160621E0,1.4592666E1,1.4953015E0,1.4822805E0,1.5107182E0,3.0669217E0,1.931457E0,4.193939E1,1.5429433E1,4.114206E0,1.6248747E0,1.0493772E0,5.6638203E0,3.1125057E0,2.8046137E1,2.3315798E1,2.9879193E0,2.2123926E0,7.35307E0,1.464746E0,2.9513881E0,1.0393842E0,2.8607523E0,2.9203824E2,1.1689941E3,8.031904E0,6.5607615E0,1.1215951E0,1.9453266E0,8.301845E0,3.3637543E1,1.5909121E0,1.3838521E1,1.0829421E0,3.0312634E0,3.6791124E0,1.984708E0],"tree_param":{"num_deleted":"0","num_feature":"6","num_nodes":"75","size_leaf_vector":"0"}},{"base_weights":[1.3884544E-2,6.951791E-3,1.9615278E-1,2.4800625E-1,1.8364233E-3,6.511528E-1,1.5263613E-1,3.7011695E-1,-1.6810519E-1,-4.0240746E-2,1.9028485E-2,4.161045E-2,8.013733E-1,-5.216029E-1,1.8374123E-1,2.6440683E-1,8.332599E-1,3.903226E-1,-1.2264545E0,-1.9917749E-2,-8.7031454E-1,1.0495785E0,1.49929365E-2,6.137512E-1,1.3123202E-1,3.528559E-1,-6.4904684E-1,-4.5368567E-1,6.920896E-1,4.4536136E-2,-1.8682591E0,3.040891E-2,-1.4263204E-1,-1.023746E0,1.3916348E-1,3.2307413E-1,1.2904669E0,-7.4238986E-2,4.4727188E-2,8.386631E-1,1.4686815E-1,-1.2111912E0,1.861601E-1,2.0194021E-1,6.540029E-1,2.765983E-1,8.0318195E-1,2.48517E-1,-4.4327214E-2,-2.8648075E-1,2.0609789E-1,-1.1030368E0,-2.8182143E-1,-1.9917086E-2,-5.227446E-1,1.7918262E-1,2.2912996E-2,8.369141E-1,1.3289037E-1],"categories":[],"categories_nodes":[],"categories_segments":[],"categories_sizes":[],"default_left":[1,1,1,1,1,1,1,1,1,1,1,0,0,0,1,1,0,1,1,1,1,1,1,1,1,1,0,0,1,0,0,1,1,1,0,0,0,1,1,0,0,0,1,0,0,0,0,0,0,0,0,0,0,0,0,0,0,0,0],"id":12,"left_children":[1,3,5,7,9,11,13,15,17,19,21,-1,-1,-1,23,25,-1,27,29,31,33,35,37,39,41,43,-1,-1,45,-1,-1,47,49,51,-1,-1,-1,53,55,-1,-1,-1,57,-1,-1,-1,-1,-1,-1,-1,-1,-1,-1,-1,-1,-1,-1,-1,-1],"loss_changes":[2.0695114E0,1.9476025E0,1.0888956E0,1.729913E0,1.1205837E0,4.1831088E-1,1.2719978E0,1.0372903E0,5.2860293E0,7.562966E0,4.5575657E0,0E0,0E0,0E0,1.1466037E0,2.037066E0,0E0,1.8633351E0,2.571896E0,2.7194164E0,1.8020964E0,3.3121634E-1,2.9122982E0,4.693148E-1,3.890603E0,8.246367E-1,0E0,0E0,2.9525757E-3,0E0,0E0,5.106489E0,6.481928E0,2.4336433E-1,0E0,0E0,0E0,6.675103E0,2.4097247E0,0E0,0E0,0E0,1.5741663E0,0E0,0E0,0E0,0E0,0E0,0E0,0E0,0E0,0E0,0E0,0E0,0E0,0E0,0E0,0E0,0E0],"parents":[2147483647,0,0,1,1,2,2,3,3,4,4,5,5,6,6,7,7,8,8,9,9,10,10,14,14,15,15,17,17,18,18,19,19,20,20,21,21,22,22,23,23,24,24,25,25,28,28,31,31,32,32,33,33,37,37,38,38,42,42],"right_children":[2,4,6,8,10,12,14,16,18,20,22,-1,-1,-1,24,26,-1,28,30,32,34,36,38,40,42,44,-1,-1,46,-1,-1,48,50,52,-1,-1,-1,54,56,-1,-1,-1,58,-1,-1,-1,-1,-1,-1,-1,-1,-1,-1,-1,-1,-1,-1,-1,-1],"split_conditions":[2.5E0,9.5E0,3.25E1,3.5E5,1.4414851E4,9.5E0,3.55E1,3.1142318E4,2.5748164E4,1.4202654E4,1.4482936E4,1.2483136E-2,2.40412E-1,-1.5648088E-1,5.95E1,2.8873145E4,2.4997798E-1,1.5E0,5.5E0,1.1717283E4,3.5E0,5E-1,7.5E4,2.2064059E4,6.25E1,3.5E0,-1.9471405E-1,-1.361057E-1,2.5E0,1.3360841E-2,-5.6047773E-1,7.5E4,1.3570641E4,3.5E5,4.1749045E-2,9.692224E-2,3.871401E-1,4.495E2,1.7254451E4,2.5159895E-1,4.4060446E-2,-3.6335737E-1,7.35E1,6.0582064E-2,1.9620088E-1,8.297949E-2,2.409546E-1,7.455511E-2,-1.3298165E-2,-8.594423E-2,6.182937E-2,-3.3091104E-1,-8.454643E-2,-5.975126E-3,-1.5682338E-1,5.3754788E-2,6.873899E-3,2.5107425E-1,3.9867114E-2],"split_indices":[3,0,0,2,1,0,0,1,1,1,1,0,0,0,0,1,0,0,0,1,5,3,2,1,0,5,0,0,5,0,0,2,1,2,0,0,0,0,1,0,0,0,0,0,0,0,0,0,0,0,0,0,0,0,0,0,0,0,0],"split_type":[0,0,0,0,0,0,0,0,0,0,0,0,0,0,0,0,0,0,0,0,0,0,0,0,0,0,0,0,0,0,0,0,0,0,0,0,0,0,0,0,0,0,0,0,0,0,0,0,0,0,0,0,0,0,0,0,0,0,0],"sum_hessian":[1.6378423E3,1.5788281E3,5.9014156E1,3.1821102E1,1.5470071E3,3.9325917E0,5.5081566E1,2.4687056E1,7.1340466E0,4.4834714E2,1.0986599E3,1.0300411E0,2.9025505E0,1.7336494E0,5.3347916E1,2.137843E1,3.3086255E0,5.083162E0,2.0508847E0,4.3863196E2,9.715189E0,3.2748868E0,1.095385E3,4.642333E0,4.8705585E1,2.0050652E1,1.3277782E0,1.2061807E0,3.8769813E0,1.0003872E0,1.0504974E0,3.1159512E2,1.2703684E2,8.421123E0,1.2940671E0,1.3984438E0,1.8764431E0,2.73405E2,8.2198E2,2.5956337E0,2.0466993E0,1.0870862E0,4.76185E1,1.4469853E1,5.5807977E0,1.5541568E0,2.3228245E0,7.892808E1,2.3266704E2,9.006439E1,3.6972446E1,7.1683083E0,1.2528138E0,2.4479985E2,2.8605154E1,1.1373587E2,7.0824414E2,2.4899447E0,4.512855E1],"tree_param":{"num_deleted":"0","num_feature":"6","num_nodes":"59","size_leaf_vector":"0"}},{"base_weights":[1.0391403E-2,3.6055415E-3,1.4309806E-1,7.3981495E-4,2.1319966E-1,6.274621E-1,9.5972925E-2,3.267397E-3,-5.320172E-1,-3.5653278E-1,4.0845263E-1,2.6862943E-1,8.0446494E-1,4.1734666E-2,4.0506175E-1,9.683515E-4,6.874622E-1,-1.3323437E0,3.058861E-2,-7.3971546E-1,5.974619E-1,8.356228E-1,1.20758206E-1,3.4376144E-1,3.334107E-2,2.7684467E-3,7.530824E-1,8.465107E-1,1.2046463E-1,5.2478774E-3,-5.07523E-1,-4.835632E-1,1.1064618E0,-5.562597E-1,4.574629E-1,-9.914681E-1,-1.3647686E-1,4.19889E-1,-3.6651826E-1,4.7963895E-2,-4.6282488E-1,-3.0541432E-1,4.7390184E-1,3.1382162E-3,8.927311E-1,-9.2833304E-1,-1.4980072E-1,9.0245664E-1,-2.7314654E-1,-3.1806016E-1,7.134146E-1,1.2079749E-1,-7.630119E-1,-1.4263849E-2,4.1080266E-1,-9.055904E-1,1.885861E-2,-6.949475E-1,9.19576E-2,8.190164E-1,-2.6349673E-1],"categories":[],"categories_nodes":[],"categories_segments":[],"categories_sizes":[],"default_left":[1,1,1,1,1,1,1,1,1,1,1,1,0,1,1,1,1,0,1,1,0,0,1,0,0,1,0,0,1,1,1,0,0,0,1,0,0,1,1,1,1,1,1,0,0,0,0,0,0,0,0,0,0,0,0,0,0,0,0,0,0],"id":13,"left_children":[1,3,5,7,9,11,13,15,17,19,21,23,-1,25,27,29,31,-1,33,35,-1,-1,37,-1,-1,39,-1,-1,41,43,45,-1,-1,-1,47,-1,-1,49,51,53,55,57,59,-1,-1,-1,-1,-1,-1,-1,-1,-1,-1,-1,-1,-1,-1,-1,-1,-1,-1],"loss_changes":[1.4704125E0,9.33819E-1,1.7529196E0,2.0687497E0,2.4784222E0,2.1976733E-1,1.2164798E0,2.404044E0,3.3071291E0,2.593744E0,1.875736E0,5.5152297E-2,0E0,1.7636812E0,1.2634335E0,3.3204088E0,3.0463898E0,0E0,1.5664766E0,5.7031965E-1,0E0,0E0,1.7251875E0,0E0,0E0,1.3141955E0,0E0,0E0,1.3148727E0,2.829772E0,1.7779143E0,0E0,0E0,0E0,1.410631E0,0E0,0E0,1.7747016E0,9.8761797E-1,1.2899573E0,1.195746E0,7.037636E-1,1.3966672E0,0E0,0E0,0E0,0E0,0E0,0E0,0E0,0E0,0E0,0E0,0E0,0E0,0E0,0E0,0E0,0E0,0E0,0E0],"parents":[2147483647,0,0,1,1,2,2,3,3,4,4,5,5,6,6,7,7,8,8,9,9,10,10,11,11,13,13,14,14,15,15,16,16,18,18,19,19,22,22,25,25,28,28,29,29,30,30,34,34,37,37,38,38,39,39,40,40,41,41,42,42],"right_children":[2,4,6,8,10,12,14,16,18,20,22,24,-1,26,28,30,32,-1,34,36,-1,-1,38,-1,-1,40,-1,-1,42,44,46,-1,-1,-1,48,-1,-1,50,52,54,56,58,60,-1,-1,-1,-1,-1,-1,-1,-1,-1,-1,-1,-1,-1,-1,-1,-1,-1,-1],"split_conditions":[5E-1,4.168706E4,3.65E1,4.071273E4,7.5E4,1.68092E4,3.97E2,4.018503E4,1.5E0,3.05E2,1.5E5,1.1643874E4,2.4133949E-1,2.5E0,4.805E2,3.8895465E4,5.95E1,-3.9970312E-1,4.1080992E4,4.6149117E4,1.7923857E-1,2.5068685E-1,4.47785E4,1.0312844E-1,1.0002321E-2,3.375E2,2.2592473E-1,2.5395322E-1,5.995E2,3.848386E4,3.9387793E4,-1.4506897E-1,3.3193853E-1,-1.6687791E-1,4.1484727E4,-2.9744044E-1,-4.094306E-2,5.85E1,1.57E2,2.415E2,3.505E2,1.5333106E4,3.5E5,9.414649E-4,2.6781934E-1,-2.7849993E-1,-4.494022E-2,2.70737E-1,-8.194397E-2,-9.541805E-2,2.140244E-1,3.6239248E-2,-2.2890358E-1,-4.279155E-3,1.23240806E-1,-2.7167714E-1,5.657583E-3,-2.0848425E-1,2.7587282E-2,2.4570493E-1,-7.904902E-2],"split_indices":[4,1,0,1,2,1,0,1,5,0,2,1,0,3,0,1,0,0,1,1,0,0,1,0,0,0,0,0,0,1,1,0,0,0,1,0,0,0,0,0,0,1,2,0,0,0,0,0,0,0,0,0,0,0,0,0,0,0,0,0,0],"split_type":[0,0,0,0,0,0,0,0,0,0,0,0,0,0,0,0,0,0,0,0,0,0,0,0,0,0,0,0,0,0,0,0,0,0,0,0,0,0,0,0,0,0,0,0,0,0,0,0,0,0,0,0,0,0,0,0,0,0,0,0,0],"sum_hessian":[1.6324048E3,1.5539708E3,7.843404E1,1.5340004E3,1.9970463E1,5.862542E0,7.2571495E1,1.5277461E3,6.2542844E0,4.886384E0,1.5084079E1,2.768236E0,3.0943062E0,6.2703445E1,9.868045E0,1.5236277E3,4.11831E0,2.0169444E0,4.23734E0,3.6463852E0,1.2399988E0,5.3040495E0,9.780029E0,1.7487919E0,1.019444E0,6.039881E1,2.3046353E0,3.0941613E0,6.773884E0,1.5118932E3,1.1734601E1,1.0446416E0,3.0736682E0,1.6566921E0,2.580648E0,2.1186306E0,1.5277543E0,6.145627E0,3.6344025E0,5.5872242E1,4.5265718E0,3.1337287E0,3.640155E0,1.5093088E3,2.5842848E0,4.6589165E0,7.0756845E0,1.4576335E0,1.1230145E0,1.7250683E0,4.4205585E0,1.9424024E0,1.692E0,4.8512856E1,7.359386E0,1.9000158E0,2.6265557E0,1.2043134E0,1.9294153E0,2.4042454E0,1.2359096E0],"tree_param":{"num_deleted":"0","num_feature":"6","num_nodes":"61","size_leaf_vector":"0"}},{"base_weights":[7.825384E-3,6.698145E-2,-3.9035503E-3,1.0425927E-1,-3.3066377E-1,-1.4010538E-1,9.96846E-3,5.9579723E-2,4.2240214E-1,6.2536186E-1,-5.288402E-1,-3.9875217E-2,-4.8071685E-1,5.648079E-1,1.6972707E-3,2.0700946E-2,3.1856233E-1,2.1535431E-1,9.948993E-1,7.5712883E-1,1.3540286E-1,-9.035926E-1,-2.73924E-1,5.719587E-2,-3.9544335E-1,-5.9610415E-1,6.2270653E-1,8.4290797E-1,-2.8168172E-2,-1.06872115E-2,1.3908608E-1,1.3832168E-1,-1.0147477E-1,8.799106E-2,7.2911125E-1,3.9974627E-1,-5.226324E-1,1.4974835E0,3.1086585E-1,-1.3954155E0,-5.694223E-1,-9.0960103E-1,-1.16838254E-1,-5.609501E-1,9.6533224E-2,-6.7025894E-1,6.241645E-1,-9.82986E-1,-3.3341277E-1,-2.3153087E-2,9.6356195E-1,3.2310018E-1,1.3718345E0,-7.179794E-1,4.333306E-1,-5.6577907E-3,-8.3243275E-1,8.1818444E-1,6.1396457E-2,-5.874992E-2,3.359235E-1,6.434656E-2,-2.6908466E-1,3.1901374E-1,-9.5666677E-1,1.1738769E0,3.8932434E-1,1.9359401E-1,1.118186E0,-1.2530768E0,1.0271355E0,1.1068668E0,-2.5886914E-1,2.0426701E-1,-8.9302135E-1,2.8742808E-1,-4.135776E-1,-1.6624302E-1,-1.0223078E0,6.664699E-1,4.8761092E-2,1.658233E-1,-9.63964E-1,-6.960823E-2,1.0539E0,-5.205348E-1,-1.3516552E0,1.387505E-1,-6.7874134E-1,6.2398636E-1,-5.442263E-1,9.2268765E-1,4.229799E-2,-4.458883E-1,-5.797489E-4,-1.0762646E0,1.4438349E-1,4.1407678E-1,1.3765149E0,-1.1328862E-2,5.1799476E-1],"categories":[],"categories_nodes":[],"categories_segments":[],"categories_sizes":[],"default_left":[1,1,1,1,1,1,1,1,1,1,1,1,1,1,1,1,1,1,1,0,0,1,1,1,1,1,1,1,1,1,1,1,1,1,1,1,1,0,1,0,1,0,1,1,1,1,1,1,1,0,0,1,0,0,1,1,1,1,1,0,0,0,0,0,0,0,0,0,0,0,0,0,0,0,0,0,0,0,0,0,0,0,0,0,0,0,0,0,0,0,0,0,0,0,0,0,0,0,0,0,0],"id":14,"left_children":[1,3,5,7,9,11,13,15,17,19,21,23,25,27,29,31,33,35,37,-1,-1,39,41,43,45,47,49,51,53,55,57,59,61,63,65,67,69,-1,71,-1,73,-1,75,77,79,81,83,85,87,-1,-1,89,-1,-1,91,93,95,97,99,-1,-1,-1,-1,-1,-1,-1,-1,-1,-1,-1,-1,-1,-1,-1,-1,-1,-1,-1,-1,-1,-1,-1,-1,-1,-1,-1,-1,-1,-1,-1,-1,-1,-1,-1,-1,-1,-1,-1,-1,-1,-1],"loss_changes":[1.1311512E0,4.0330153E0,2.5731614E0,3.4912987E0,4.756544E0,4.2784734E0,5.6725297E0,2.1892989E0,3.3773327E0,1.8600953E-1,1.6526723E0,3.417337E0,4.0037646E0,3.0177684E0,2.0758038E0,2.7543223E0,2.6238801E0,3.4106576E0,2.2061868E0,0E0,0E0,4.573989E-1,1.2191367E0,1.9540964E0,6.3639755E0,2.3492727E0,7.2460496E-1,2.9637518E0,2.4644575E0,4.621004E0,5.2719817E0,3.8196318E0,2.6329572E0,4.9681807E0,1.0656037E0,2.6555748E0,7.1022162E0,0E0,2.351601E0,0E0,1.7409799E0,0E0,1.533289E0,7.08076E-1,1.9908358E0,4.3825655E0,1.5708318E0,1.0250349E0,2.8989215E0,0E0,0E0,2.311933E0,0E0,0E0,8.558151E-1,2.4888442E0,1.7754159E0,1.7482567E0,3.0476727E0,0E0,0E0,0E0,0E0,0E0,0E0,0E0,0E0,0E0,0E0,0E0,0E0,0E0,0E0,0E0,0E0,0E0,0E0,0E0,0E0,0E0,0E0,0E0,0E0,0E0,0E0,0E0,0E0,0E0,0E0,0E0,0E0,0E0,0E0,0E0,0E0,0E0,0E0,0E0,0E0,0E0,0E0],"parents":[2147483647,0,0,1,1,2,2,3,3,4,4,5,5,6,6,7,7,8,8,9,9,10,10,11,11,12,12,13,13,14,14,15,15,16,16,17,17,18,18,21,21,22,22,23,23,24,24,25,25,26,26,27,27,28,28,29,29,30,30,31,31,32,32,33,33,34,34,35,35,36,36,38,38,40,40,42,42,43,43,44,44,45,45,46,46,47,47,48,48,51,51,54,54,55,55,56,56,57,57,58,58],"right_children":[2,4,6,8,10,12,14,16,18,20,22,24,26,28,30,32,34,36,38,-1,-1,40,42,44,46,48,50,52,54,56,58,60,62,64,66,68,70,-1,72,-1,74,-1,76,78,80,82,84,86,88,-1,-1,90,-1,-1,92,94,96,98,100,-1,-1,-1,-1,-1,-1,-1,-1,-1,-1,-1,-1,-1,-1,-1,-1,-1,-1,-1,-1,-1,-1,-1,-1,-1,-1,-1,-1,-1,-1,-1,-1,-1,-1,-1,-1,-1,-1,-1,-1,-1,-1],"split_conditions":[5.35E1,3.4338586E4,7.15E1,2.9248297E4,1.65E1,2.7377328E4,7.45E1,4.85E1,4.35E1,3.5E5,3.596167E4,6.75E1,4.15472E4,2.4922707E4,3.3743105E4,2.5E0,2.0918188E4,3.75E1,3.1650602E4,2.2713865E-1,4.062086E-2,7.5E4,2.15E1,3.153268E3,2.4212406E4,2.9738758E4,6.25E1,1.7657184E4,2.8209918E4,3.3453645E4,3.4328516E4,1.5E0,1.7533691E4,1.874993E4,2.2578922E4,3.331438E4,3.5E5,4.4924507E-1,4.75E1,-4.1862467E-1,3.7E1,-2.7288032E-1,3.8851867E4,2.5E0,5.8490664E3,1.5E0,5E-1,2.8951307E4,3.2658836E4,-6.945926E-3,2.890686E-1,1.5E0,4.1155037E-1,-2.1539383E-1,5E-1,7.65E1,5.465E2,2.34E2,4.89E2,-1.7624978E-2,1.0077705E-1,1.9303968E-2,-8.07254E-2,9.570413E-2,-2.8700003E-1,3.5216308E-1,1.16797306E-1,5.8078203E-2,3.354558E-1,-3.7592307E-1,3.0814067E-1,3.3206007E-1,-7.766075E-2,6.1280105E-2,-2.6790643E-1,8.622843E-2,-1.2407328E-1,-4.987291E-2,-3.0669233E-1,1.9994096E-1,1.4628328E-2,4.974699E-2,-2.8918922E-1,-2.0882469E-2,3.1617E-1,-1.5616044E-1,-4.054966E-1,4.162515E-2,-2.0362242E-1,1.8719591E-1,-1.632679E-1,2.768063E-1,1.2689398E-2,-1.337665E-1,-1.7392467E-4,-3.228794E-1,4.331505E-2,1.2422304E-1,4.1295448E-1,-3.3986587E-3,1.5539843E-1],"split_indices":[0,1,0,1,0,1,0,0,0,2,1,0,1,1,1,5,1,0,1,0,0,2,0,1,1,1,0,1,1,1,1,5,1,1,1,1,2,0,0,0,0,0,1,5,1,5,3,1,1,0,0,3,0,0,3,0,0,0,0,0,0,0,0,0,0,0,0,0,0,0,0,0,0,0,0,0,0,0,0,0,0,0,0,0,0,0,0,0,0,0,0,0,0,0,0,0,0,0,0,0,0],"split_type":[0,0,0,0,0,0,0,0,0,0,0,0,0,0,0,0,0,0,0,0,0,0,0,0,0,0,0,0,0,0,0,0,0,0,0,0,0,0,0,0,0,0,0,0,0,0,0,0,0,0,0,0,0,0,0,0,0,0,0,0,0,0,0,0,0,0,0,0,0,0,0,0,0,0,0,0,0,0,0,0,0,0,0,0,0,0,0,0,0,0,0,0,0,0,0,0,0,0,0,0,0],"sum_hessian":[1.6289053E3,2.6874615E2,1.3601592E3,2.4638615E2,2.236001E1,1.2488458E2,1.2352745E3,2.1708615E2,2.9300001E1,3.4690986E0,1.8890911E1,9.7353806E1,2.753078E1,1.7155872E1,1.2181187E3,1.8968965E2,2.7396502E1,2.252855E1,6.771451E0,2.3041441E0,1.1649544E0,6.6176434E0,1.2273268E1,7.71349E1,2.02189E1,2.5340628E1,2.1901531E0,1.1391758E1,5.7641134E0,1.1182406E3,9.9878075E1,9.657909E1,9.311056E1,1.8321281E1,9.07522E0,1.839159E1,4.136959E0,3.217927E0,3.553524E0,1.3924747E0,5.2251687E0,1.4827137E0,1.0790554E1,3.8216493E0,7.3313255E1,1.6196167E1,4.022733E0,9.13903E0,1.6201597E1,1.0785565E0,1.1115966E0,6.5578384E0,4.83392E0,2.0877528E0,3.6763608E0,1.112439E3,5.801698E0,9.274718E0,9.0603355E1,4.870623E1,4.7872856E1,4.7114704E1,4.5995853E1,1.557217E1,2.7491112E0,2.8673043E0,6.2079153E0,1.5277315E1,3.1142755E0,2.9418392E0,1.1951201E0,1.089109E0,2.4644153E0,1.6496954E0,3.5754733E0,4.5809803E0,6.209574E0,2.7927186E0,1.0289308E0,4.668272E0,6.864498E1,4.323626E0,1.187254E1,1.8592108E0,2.1635225E0,5.123786E0,4.015244E0,7.096649E0,9.104948E0,5.077095E0,1.480743E0,1.029001E0,2.6473598E0,1.1695713E1,1.1007432E3,4.5613027E0,1.2403959E0,6.3908157E0,2.883902E0,7.89963E1,1.1607055E1],"tree_param":{"num_deleted":"0","num_feature":"6","num_nodes":"101","size_leaf_vector":"0"}},{"base_weights":[6.3266796E-3,1.2995095E-3,1.4484338E-1,-6.728738E-5,4.1300043E-1,5.7788634E-1,1.0755989E-1,1.6688997E-1,-3.360212E-3,7.4077845E-1,-4.153162E-1,3.672935E-2,7.3586875E-1,-5.76834E-1,1.3213865E-1,2.7728328E-1,-1.7193303E-1,-2.2296962E-1,-5.451954E-4,8.5973896E-2,9.860535E-1,2.24287E-1,-2.4053155E-2,1.2701729E-1,5.7148045E-1,3.1684145E-1,-9.075754E-1,1.8139893E-1,-4.2963934E-1,4.176713E-1,-2.8552166E-3,-6.036563E-2,2.8717047E-1,-7.388654E-1,8.021166E-2,-9.490766E-2,4.0800813E-1,8.230951E-1,2.5159886E-1,-4.2208365E-1,6.2217885E-1,-2.9413763E-1,-1.1005936E0,-1.9877736E-1,5.7009333E-1,-5.143306E-1,1.9110417E-1,-3.3005413E-1,5.686672E-1,-6.138484E-1,-1.2078126E-3,6.786271E-1,-4.148827E-1,6.740949E-2,5.099642E-1,1.7719477E-1,-3.6383456E-1],"categories":[],"categories_nodes":[],"categories_segments":[],"categories_sizes":[],"default_left":[1,1,1,1,1,1,1,1,1,1,0,0,0,0,1,1,1,1,1,0,0,1,1,1,1,1,1,1,1,1,1,1,1,0,1,0,0,0,0,0,0,0,0,0,0,0,0,0,0,0,0,0,0,0,0,0,0],"id":15,"left_children":[1,3,5,7,9,11,13,15,17,19,-1,-1,-1,-1,21,23,25,27,29,-1,-1,31,33,35,37,39,41,43,45,47,49,51,53,-1,55,-1,-1,-1,-1,-1,-1,-1,-1,-1,-1,-1,-1,-1,-1,-1,-1,-1,-1,-1,-1,-1,-1],"loss_changes":[1.1319532E0,8.8342804E-1,8.570055E-1,8.613499E-1,1.7180636E0,3.3924878E-1,9.7863483E-1,1.1811247E0,9.4968796E-1,5.7069445E-1,0E0,0E0,0E0,0E0,7.62457E-1,9.5475554E-1,3.1871243E0,1.7027462E0,1.4676756E0,0E0,0E0,6.112423E-1,1.5812188E0,1.0781211E0,4.0227222E-1,1.5229888E0,8.807206E-2,1.1889651E0,7.903044E-1,1.1298913E0,1.5197705E0,2.0708563E0,1.3046913E0,0E0,8.707901E-1,0E0,0E0,0E0,0E0,0E0,0E0,0E0,0E0,0E0,0E0,0E0,0E0,0E0,0E0,0E0,0E0,0E0,0E0,0E0,0E0,0E0,0E0],"parents":[2147483647,0,0,1,1,2,2,3,3,4,4,5,5,6,6,7,7,8,8,9,9,14,14,15,15,16,16,17,17,18,18,21,21,22,22,23,23,24,24,25,25,26,26,27,27,28,28,29,29,30,30,31,31,32,32,34,34],"right_children":[2,4,6,8,10,12,14,16,18,20,-1,-1,-1,-1,22,24,26,28,30,-1,-1,32,34,36,38,40,42,44,46,48,50,52,54,-1,56,-1,-1,-1,-1,-1,-1,-1,-1,-1,-1,-1,-1,-1,-1,-1,-1,-1,-1,-1,-1,-1,-1],"split_conditions":[2.5E0,1.1415E3,3.25E1,9.5E0,3.5E5,9.5E0,3.45E1,3.5E5,1.45E1,1.21E3,-1.2459486E-1,1.1018805E-2,2.2076063E-1,-1.7305021E-1,2.525E2,6.5E0,2.5748164E4,5E-1,1.65E1,2.579217E-2,2.9581606E-1,1.1982162E4,2.81E2,1.9148018E4,1.766671E4,1.5E0,3.157905E4,1.733748E4,2.9559086E4,8.053588E3,1.75E1,4.8559126E3,1.13E2,-2.2165962E-1,3.1896395E4,-2.8472299E-2,1.22402444E-1,2.4692853E-1,7.5479664E-2,-1.266251E-1,1.8665366E-1,-8.8241294E-2,-3.3017808E-1,-5.963321E-2,1.71028E-1,-1.542992E-1,5.7331253E-2,-9.901624E-2,1.7060016E-1,-1.8415453E-1,-3.623438E-4,2.0358813E-1,-1.2446481E-1,2.0222848E-2,1.5298927E-1,5.3158436E-2,-1.0915037E-1],"split_indices":[3,0,0,0,2,0,0,2,0,0,0,0,0,0,0,0,1,3,0,0,0,1,0,1,1,0,1,1,1,1,0,1,0,0,1,0,0,0,0,0,0,0,0,0,0,0,0,0,0,0,0,0,0,0,0,0,0],"split_type":[0,0,0,0,0,0,0,0,0,0,0,0,0,0,0,0,0,0,0,0,0,0,0,0,0,0,0,0,0,0,0,0,0,0,0,0,0,0,0,0,0,0,0,0,0,0,0,0,0,0,0,0,0,0,0,0,0],"sum_hessian":[1.6248293E3,1.5688989E3,5.5930477E1,1.5647041E3,4.194791E0,3.2842746E0,5.2646202E1,2.9303087E1,1.535401E3,3.081195E0,1.1135956E0,1.0206397E0,2.263635E0,1.0461947E0,5.1600006E1,2.223895E1,7.064136E0,1.8442331E1,1.5169586E3,1.2076592E0,1.8735359E0,3.2179264E1,1.9420744E1,1.5668005E1,6.5709457E0,4.5862474E0,2.4778883E0,6.279054E0,1.2163277E1,7.3451858E0,1.5096135E3,5.8297877E0,2.6349474E1,1.6973981E0,1.7723345E1,9.12409E0,6.5439143E0,2.7974133E0,3.7735326E0,1.2291993E0,3.3570483E0,1.1971307E0,1.2807577E0,3.4213169E0,2.857737E0,1.0853857E1,1.3094199E0,1.034842E0,6.3103437E0,3.060101E0,1.5065533E3,1.5936294E0,4.2361584E0,1.3920767E1,1.2428708E1,1.5039547E1,2.6837986E0],"tree_param":{"num_deleted":"0","num_feature":"6","num_nodes":"57","size_leaf_vector":"0"}},{"base_weights":[5.0233845E-3,-4.6114202E-4,1.15127966E-1,-2.2936657E-2,2.154797E-2,5.5928546E-1,7.631088E-2,-6.981812E-3,-2.4910544E-1,1.2447941E-1,-5.646906E-3,2.2241698E-1,7.471734E-1,3.9828703E-2,5.485151E-1,2.9709318E-1,-1.9250588E-2,-4.502335E-1,4.2551544E-1,1.0830674E-2,3.173149E-1,-1.9646727E-3,-7.3787147E-1,2.907776E-1,2.3080537E-2,6.2675625E-2,-7.412343E-1,6.433351E-1,8.428108E-2,1.6183434E-1,1.264867E0,-2.306758E-1,3.4589851E-3,-2.8873032E-2,-7.012311E-1,-9.1428584E-1,7.7925146E-1,7.965101E-2,-4.9544305E-1,4.5111445E-1,-3.5668254E-2,-5.9170783E-2,3.4574483E-2,1.8340692E-2,3.1948996E-1,2.6936623E-1,-9.619142E-1,-7.782988E-2,-7.3670954E-1,4.1915917E-1,-1.204465E-2,-9.5647264E-1,2.275917E-1,-7.882455E-1,2.1477202E-1,-3.4420857E-1,9.507272E-1,3.3198875E-1,-1.0954783E-2,-9.2424077E-1,3.1701246E-1,2.6024374E-1,6.633836E-1,-6.88817E-1,1.939211E-1,-1.3409649E-1,8.468822E-2,8.566475E-2,-1.30676E-1,1.41273E-1,-2.1756636E-1,7.7506936E-1,6.460837E-2],"categories":[],"categories_nodes":[],"categories_segments":[],"categories_sizes":[],"default_left":[1,1,1,1,1,1,1,1,1,1,1,1,0,1,1,1,1,1,1,1,1,1,0,0,0,1,0,0,0,1,0,1,1,1,1,0,1,1,1,1,1,1,1,1,1,0,0,0,0,0,0,0,0,0,0,0,0,0,0,0,0,0,0,0,0,0,0,0,0,0,0,0,0],"id":16,"left_children":[1,3,5,7,9,11,13,15,17,19,21,23,-1,25,27,29,31,33,35,37,39,41,-1,-1,-1,43,-1,-1,-1,45,-1,47,49,51,53,-1,55,57,59,61,63,65,67,69,71,-1,-1,-1,-1,-1,-1,-1,-1,-1,-1,-1,-1,-1,-1,-1,-1,-1,-1,-1,-1,-1,-1,-1,-1,-1,-1,-1,-1],"loss_changes":[9.8021835E-1,7.658002E-1,1.2852021E0,2.7621171E0,2.1901987E0,2.1560931E-1,1.2182794E0,2.678675E0,7.035895E0,3.579984E0,1.669327E0,4.212199E-2,0E0,1.2581726E0,1.6959226E-1,3.4406688E0,3.3120239E0,4.1407557E0,6.4465933E0,3.6600246E0,2.878015E0,1.2929407E0,0E0,0E0,0E0,7.5579566E-1,0E0,0E0,0E0,3.3502014E0,0E0,5.117482E0,4.0249386E0,3.9598684E0,2.1311092E0,0E0,2.2752237E0,2.1148367E0,4.6734E0,1.6106329E0,2.770202E0,2.609912E0,3.1982582E0,1.7158923E0,1.0864149E0,0E0,0E0,0E0,0E0,0E0,0E0,0E0,0E0,0E0,0E0,0E0,0E0,0E0,0E0,0E0,0E0,0E0,0E0,0E0,0E0,0E0,0E0,0E0,0E0,0E0,0E0,0E0,0E0],"parents":[2147483647,0,0,1,1,2,2,3,3,4,4,5,5,6,6,7,7,8,8,9,9,10,10,11,11,13,13,14,14,15,15,16,16,17,17,18,18,19,19,20,20,21,21,25,25,29,29,31,31,32,32,33,33,34,34,36,36,37,37,38,38,39,39,40,40,41,41,42,42,43,43,44,44],"right_children":[2,4,6,8,10,12,14,16,18,20,22,24,-1,26,28,30,32,34,36,38,40,42,-1,-1,-1,44,-1,-1,-1,46,-1,48,50,52,54,-1,56,58,60,62,64,66,68,70,72,-1,-1,-1,-1,-1,-1,-1,-1,-1,-1,-1,-1,-1,-1,-1,-1,-1,-1,-1,-1,-1,-1,-1,-1,-1,-1,-1,-1],"split_conditions":[5E-1,1.515E2,3.65E1,1.395E2,1.965E2,1.68092E4,3.6832547E4,2.101683E3,3.5E5,1.795E2,4.5E0,1.1522328E4,2.2415204E-1,3.5656164E4,4.20636E4,1.6562954E3,8.68972E3,1.825066E4,1.415E2,1.755E2,3.5E0,5E-1,-2.2136144E-1,8.723328E-2,6.924161E-3,3.97E2,-2.223703E-1,1.9300054E-1,2.5284326E-2,1.3194814E3,3.794601E-1,3.5E5,1.0088573E4,5.6491724E3,3.413247E4,-2.7428576E-1,7.221853E3,1.3853594E4,1.5E0,2.1509916E4,1.2084201E4,4.095E2,4.795E2,1.955E2,4.805E2,8.080988E-2,-2.8857428E-1,-2.3348965E-2,-2.2101288E-1,1.2574776E-1,-3.613395E-3,-2.869418E-1,6.827751E-2,-2.3647366E-1,6.443161E-2,-1.0326257E-1,2.8521818E-1,9.959663E-2,-3.286435E-3,-2.7727225E-1,9.510374E-2,7.807313E-2,1.990151E-1,-2.0664512E-1,5.8176335E-2,-4.0228948E-2,2.5406467E-2,2.5699425E-2,-3.9202802E-2,4.2381905E-2,-6.526991E-2,2.3252082E-1,1.9382512E-2],"split_indices":[4,0,0,0,0,1,1,1,2,0,3,1,0,1,1,1,1,1,0,0,5,3,0,0,0,0,0,0,0,1,0,2,1,1,1,0,1,1,3,1,1,0,0,0,0,0,0,0,0,0,0,0,0,0,0,0,0,0,0,0,0,0,0,0,0,0,0,0,0,0,0,0,0],"split_type":[0,0,0,0,0,0,0,0,0,0,0,0,0,0,0,0,0,0,0,0,0,0,0,0,0,0,0,0,0,0,0,0,0,0,0,0,0,0,0,0,0,0,0,0,0,0,0,0,0,0,0,0,0,0,0,0,0,0,0,0,0,0,0,0,0,0,0,0,0,0,0,0,0],"sum_hessian":[1.6221355E3,1.5461162E3,7.601929E1,7.6493207E2,7.8118414E2,5.032105E0,7.098718E1,7.1548944E2,4.94426E1,1.6251071E2,6.186734E2,2.583631E0,2.448474E0,6.690267E1,4.0845084E0,2.6848501E1,6.886409E2,3.8343636E1,1.1098965E1,1.0291394E2,5.959677E1,6.1657544E2,2.09797E0,1.582276E0,1.0013549E0,6.5894936E1,1.0077407E0,3.0713792E0,1.0131295E0,2.458031E1,2.268191E0,6.5905525E1,6.227354E2,1.4730295E1,2.361334E1,1.9872925E0,9.111672E0,9.134027E1,1.1573671E1,4.301411E1,1.658266E1,2.400816E2,3.7649384E2,5.7107624E1,8.787312E0,2.3127525E1,1.4527844E0,5.1503006E1,1.4402519E1,2.1453907E1,6.012815E2,2.5993462E0,1.2130948E1,2.1692196E1,1.9211444E0,1.0731794E0,8.038493E0,2.3428272E1,6.7911995E1,7.4854245E0,4.0882463E0,2.3820719E1,1.9193394E1,3.7927155E0,1.2789946E1,1.5790712E2,8.21745E1,2.8795026E2,8.854359E1,3.7807236E1,1.9300386E1,2.42031E0,6.367001E0],"tree_param":{"num_deleted":"0","num_feature":"6","num_nodes":"73","size_leaf_vector":"0"}},{"base_weights":[3.636266E-3,2.178356E-1,1.3056548E-3,-6.3719556E-2,5.5822176E-1,8.6955995E-5,3.792446E-1,4.9992514E-1,-2.575534E-1,8.6930466E-1,-8.7304115E-2,-1.6077507E-2,2.8137606E-2,6.627535E-1,-3.3931562E-1,1.2413105E-1,-7.8959197E-1,-4.458017E-1,2.366979E-1,-1.4215218E-3,-2.8104487E-1,1.161443E0,1.8231736E-2,-5.6572657E-2,9.373095E-1,3.791767E-1,-2.2608626E-1,-1.6056293E-1,-1.0830615E0,3.7858686E-1,-6.7936867E-3,-9.8245466E-1,-1.0504839E-1,3.2769135E-1,1.413434E0,-1.3738159E0,2.5402557E-2,-3.793468E-2,6.463474E-1,-9.989516E-3,-3.3291233E-1,5.457319E-1,6.0166102E-2,-5.544258E-1,-1.5925316E-3,6.742499E-2,-1.1539885E0,-4.8579553E-1,6.991096E-2,4.9532157E-1,4.8516216E-3],"categories":[],"categories_nodes":[],"categories_segments":[],"categories_sizes":[],"default_left":[1,1,1,1,1,1,1,0,1,0,1,1,1,1,0,1,1,0,0,1,1,1,1,0,0,1,1,0,0,1,1,1,1,0,0,0,1,0,0,0,0,0,0,0,0,0,0,0,0,0,0],"id":17,"left_children":[1,3,5,7,9,11,13,-1,15,-1,17,19,21,23,-1,25,27,-1,-1,29,31,33,35,-1,-1,37,39,-1,-1,41,43,45,47,-1,-1,-1,49,-1,-1,-1,-1,-1,-1,-1,-1,-1,-1,-1,-1,-1,-1],"loss_changes":[8.080433E-1,1.7052622E0,7.381948E-1,1.2685558E0,1.680285E0,7.253058E-1,1.2743268E0,0E0,1.8084702E0,0E0,5.128575E-1,3.9405239E0,6.5439987E0,8.494457E-1,0E0,6.0098886E-1,5.006926E-1,0E0,0E0,1.9677674E0,6.462275E0,5.9809875E-1,5.831995E0,0E0,0E0,4.3811494E-1,6.72503E-2,0E0,0E0,6.823001E-1,2.7055955E0,1.9774942E0,2.9408293E0,0E0,0E0,0E0,5.586777E0,0E0,0E0,0E0,0E0,0E0,0E0,0E0,0E0,0E0,0E0,0E0,0E0,0E0,0E0],"parents":[2147483647,0,0,1,1,2,2,3,3,4,4,5,5,6,6,8,8,10,10,11,11,12,12,13,13,15,15,16,16,19,19,20,20,21,21,22,22,25,25,26,26,29,29,30,30,31,31,32,32,36,36],"right_children":[2,4,6,8,10,12,14,-1,16,-1,18,20,22,24,-1,26,28,-1,-1,30,32,34,36,-1,-1,38,40,-1,-1,42,44,46,48,-1,-1,-1,50,-1,-1,-1,-1,-1,-1,-1,-1,-1,-1,-1,-1,-1,-1],"split_conditions":[5.5E0,1.8654783E4,1.1415E3,1.5E0,2.9673787E4,2.3496988E4,3.5E5,1.4997755E-1,1.32957E4,2.6079142E-1,3.1841465E4,2.2631988E4,2.3585352E4,1.2E3,-1.0179469E-1,1.5E5,5E-1,-1.3374051E-1,7.1009375E-2,1.15E1,2.2805822E4,2.48E2,2.361911E4,-1.6971799E-2,2.8119287E-1,2.5E0,8.30186E3,-4.8168883E-2,-3.2491845E-1,1.657135E4,1.45E1,7.85E1,7.5E4,9.830741E-2,4.240302E-1,-4.1214478E-1,2.4023893E4,-1.1380404E-2,1.9390424E-1,-2.996855E-3,-9.98737E-2,1.6371958E-1,1.804983E-2,-1.6632774E-1,-4.777595E-4,2.0227497E-2,-3.4619656E-1,-1.4573866E-1,2.0973288E-2,1.4859648E-1,1.4554865E-3],"split_indices":[0,1,0,5,1,1,2,0,1,0,1,1,1,0,0,2,3,0,0,0,1,0,1,0,0,0,1,0,0,1,0,0,2,0,0,0,1,0,0,0,0,0,0,0,0,0,0,0,0,0,0],"split_type":[0,0,0,0,0,0,0,0,0,0,0,0,0,0,0,0,0,0,0,0,0,0,0,0,0,0,0,0,0,0,0,0,0,0,0,0,0,0,0,0,0,0,0,0,0,0,0,0,0,0,0],"sum_hessian":[1.6181963E3,1.6422125E1,1.6017742E3,9.4326105E0,6.989514E0,1.5976227E3,4.1514506E0,2.0096517E0,7.4229593E0,4.4826403E0,2.5068736E0,1.01382367E3,5.837991E2,3.0325992E0,1.1188515E0,4.768631E0,2.654328E0,1.0116231E0,1.4952503E0,9.616385E2,5.2185184E1,4.051307E0,5.7974774E2,1.0570686E0,1.9755306E0,2.7113798E0,2.0572512E0,1.3365841E0,1.3177439E0,1.243671E1,9.492018E2,9.548542E0,4.2636642E1,1.4741758E0,2.5771317E0,1.9944152E0,5.7775336E2,1.3936318E0,1.317748E0,1.0423038E0,1.0149474E0,7.687517E0,4.749193E0,7.9367895E0,9.41265E2,1.426222E0,8.12232E0,1.2864423E1,2.9772219E1,2.3240162E1,5.545132E2],"tree_param":{"num_deleted":"0","num_feature":"6","num_nodes":"51","size_leaf_vector":"0"}},{"base_weights":[2.8527537E-3,-1.0300911E-3,1.13386914E-1,-3.2123815E-2,1.172268E-2,2.4805924E-1,-3.0614068E-3,-2.2095349E-2,-1.025026E0,8.575862E-1,8.505921E-3,6.631222E-1,8.8744625E-2,-1.0801634E0,8.243766E-2,1.9241769E-2,-1.178776E-1,2.6139393E-1,1.0652682E0,-7.63672E-1,1.0768386E-2,9.083957E-1,-3.0381572E-1,-6.8259135E-2,8.143075E-1,-4.6459574E-2,4.7127536E-1,-1.14824004E-1,1.11975804E-1,-6.0689616E-1,-5.2739874E-2,3.23258E-1,6.840296E-3,1.2576382E-1,-8.0914396E-1,1.0510595E-1,-3.7278333E-1,8.2854944E-1,-3.085364E-2,-7.221267E-2,-9.026184E-1,6.9219226E-1,6.209213E-2,-5.2957203E-2,-9.056209E-1,7.862248E-1,-8.580632E-2,5.92395E-1,-4.7741216E-1,-9.163342E-1,1.1348734E-2,-1.8254028E-1,7.1773833E-1,-1.0028821E0,-1.801796E-1,6.1156386E-1,-1.8961006E-1,-1.1567296E0,3.7505972E-1,-4.3800846E-1,4.1205767E-1],"categories":[],"categories_nodes":[],"categories_segments":[],"categories_sizes":[],"default_left":[1,1,1,1,1,1,1,1,0,1,1,1,1,0,1,1,1,0,0,0,1,0,0,1,0,1,1,1,1,1,1,1,1,1,1,1,1,0,1,0,0,0,0,0,0,0,0,0,0,0,0,0,0,0,0,0,0,0,0,0,0],"id":18,"left_children":[1,3,5,7,9,11,13,15,-1,17,19,21,23,-1,25,27,29,-1,-1,-1,31,-1,-1,33,-1,35,37,39,41,43,45,47,49,51,53,55,57,-1,59,-1,-1,-1,-1,-1,-1,-1,-1,-1,-1,-1,-1,-1,-1,-1,-1,-1,-1,-1,-1,-1,-1],"loss_changes":[6.942439E-1,6.2031865E-1,8.616238E-1,4.507785E0,3.0113878E0,1.625188E0,2.8910632E0,1.7897592E0,0E0,2.407248E-1,1.9408416E0,1.9146292E0,2.283546E0,0E0,1.4812939E0,3.9442294E0,4.30775E0,0E0,0E0,0E0,1.3529197E0,0E0,0E0,2.5456796E0,0E0,1.1658162E0,1.3421757E0,4.291711E0,5.381842E0,2.5862617E0,3.433121E0,3.2314873E0,4.5524893E0,2.7479088E0,2.6563382E-1,2.5540717E0,4.798277E0,0E0,9.045458E-1,0E0,0E0,0E0,0E0,0E0,0E0,0E0,0E0,0E0,0E0,0E0,0E0,0E0,0E0,0E0,0E0,0E0,0E0,0E0,0E0,0E0,0E0],"parents":[2147483647,0,0,1,1,2,2,3,3,4,4,5,5,6,6,7,7,9,9,10,10,11,11,12,12,14,14,15,15,16,16,20,20,23,23,25,25,26,26,27,27,28,28,29,29,30,30,31,31,32,32,33,33,34,34,35,35,36,36,38,38],"right_children":[2,4,6,8,10,12,14,16,-1,18,20,22,24,-1,26,28,30,-1,-1,-1,32,-1,-1,34,-1,36,38,40,42,44,46,48,50,52,54,56,58,-1,60,-1,-1,-1,-1,-1,-1,-1,-1,-1,-1,-1,-1,-1,-1,-1,-1,-1,-1,-1,-1,-1,-1],"split_conditions":[2.5E0,1.4414851E4,1.485E2,1.4346957E4,1.4482936E4,7.5E4,1.565E2,1.1717283E4,-3.075078E-1,5E-1,1.4509096E4,3.2020316E4,3.0434707E4,-3.2404903E-1,3.5E0,1.175E2,1.2004865E4,7.841818E-2,3.1958047E-1,-2.2910161E-1,1.4727853E4,2.7251872E-1,-9.114472E-2,2.7113527E4,2.4429226E-1,3.5E0,3.935E2,1.115E2,1.345E2,1.145E2,1.2093326E4,3.5E0,1.4801703E4,2.045507E4,9.95E1,2.695E2,3.01E2,2.4856484E-1,1.5E5,-2.1663804E-2,-2.7078554E-1,2.0765768E-1,1.862764E-2,-1.5887162E-2,-2.716863E-1,2.3586744E-1,-2.5741896E-2,1.777185E-1,-1.4322366E-1,-2.749003E-1,3.4046203E-3,-5.4762088E-2,2.1532151E-1,-3.0086464E-1,-5.405388E-2,1.8346916E-1,-5.6883022E-2,-3.470189E-1,1.1251792E-1,-1.3140254E-1,1.2361731E-1],"split_indices":[3,1,0,1,1,2,0,1,0,3,1,1,1,0,5,0,1,0,0,0,1,0,0,1,0,3,0,0,0,0,1,5,1,1,0,0,0,0,2,0,0,0,0,0,0,0,0,0,0,0,0,0,0,0,0,0,0,0,0,0,0],"split_type":[0,0,0,0,0,0,0,0,0,0,0,0,0,0,0,0,0,0,0,0,0,0,0,0,0,0,0,0,0,0,0,0,0,0,0,0,0,0,0,0,0,0,0,0,0,0,0,0,0,0,0,0,0,0,0,0,0,0,0,0,0],"sum_hessian":[1.616307E3,1.5624132E3,5.3893784E1,4.5398672E2,1.1084265E3,2.4467241E1,2.9426542E1,4.504593E2,3.5274553E0,3.1930695E0,1.1052334E3,5.9093213E0,1.8557919E1,1.308512E0,2.811803E1,3.1521838E2,1.352409E2,1.408453E0,1.7846165E0,2.2456765E0,1.1029878E3,4.761949E0,1.1473724E0,1.6001331E1,2.556588E0,2.1778961E1,6.3390703E0,1.2878928E2,1.8642911E2,1.4919125E1,1.2032178E2,1.2683565E1,1.0903042E3,1.3338497E1,2.6628344E0,1.5334536E1,6.444425E0,3.3239474E0,3.015123E0,1.2321624E2,5.5730286E0,1.3739817E1,1.7268929E2,5.639261E0,9.279863E0,3.6987846E0,1.1662299E2,9.687379E0,2.9961863E0,4.3158526E0,1.0859883E3,9.22546E0,4.113037E0,1.5812644E0,1.08157E0,5.2454095E0,1.0089126E1,2.8793335E0,3.5650918E0,1.5767419E0,1.4383811E0],"tree_param":{"num_deleted":"0","num_feature":"6","num_nodes":"61","size_leaf_vector":"0"}},{"base_weights":[2.135267E-3,-5.153397E-2,9.949315E-3,-1.48697365E-2,-4.9410558E-1,5.048623E-1,9.899054E-4,2.2373058E-1,-9.3505785E-2,-1.3242201E0,-3.2027307E-1,8.439423E-1,7.2360925E-2,-6.698224E-2,2.3290316E-2,4.4946827E-2,5.455648E-1,3.8494173E-2,-1.908175E-1,-7.168638E-1,7.970962E-2,-1.1479881E-1,1.125995E0,-4.5430633E-1,5.2447104E-1,-3.487444E-2,-3.47806E-1,-1.8131375E-1,3.0438095E-2,2.600903E-1,-2.9020044E-1,8.286571E-1,-3.686957E-2,-2.5279252E-2,7.49417E-1,-1.2382125E0,-1.4630787E-1,1.096408E-1,-9.5620966E-1,5.578432E-1,-3.7290782E-1,2.75927E-1,-4.767893E-1,9.355463E-2,1.2451854E0,6.644007E-3,-1.2910613E0,7.7940696E-1,-3.6145294E-1,-5.367637E-2,5.1675236E-1,-1.0676688E0,-1.6437133E-1,1.6816783E-1,-3.7268895E-1,8.584692E-1,2.1783689E-2,-1.3562289E-1,4.318758E-1,-9.6972895E-1,2.6798028E-1,3.707215E-1,1.2640294E0,-5.122895E-1,7.662048E-1,3.4446467E-2,-9.377988E-1,1.1711357E0,1.4352806E-1,-2.1227755E-1,6.429173E-2,-1.7074669E-2,-1.1541996E0,-5.3327936E-1,1.074919E0,-7.119473E-1,2.652682E-1,-5.2827364E-1,6.9342464E-1,1.1024832E0,3.698977E-1,-4.231757E-2,-9.562862E-1,-3.1251818E-1,1.1149445E0,3.8713613E-3,-1.6145966E0,5.4364866E-1,-3.3598953E-1,7.861016E-1,-3.0109504E-1,-6.995611E-1,-6.41725E-2,1.07505195E-1,9.9055284E-1,-6.5789604E-1,2.8088883E-2],"categories":[],"categories_nodes":[],"categories_segments":[],"categories_sizes":[],"default_left":[1,1,1,1,1,1,1,1,1,0,1,1,1,1,1,1,1,1,1,1,1,1,1,1,1,1,1,1,1,1,1,1,1,1,1,0,1,0,1,1,1,0,0,0,0,1,0,1,0,1,1,1,1,1,1,1,1,0,0,0,0,0,0,0,0,0,0,0,0,0,0,0,0,0,0,0,0,0,0,0,0,0,0,0,0,0,0,0,0,0,0,0,0,0,0,0,0],"id":19,"left_children":[1,3,5,7,9,11,13,15,17,-1,19,21,23,25,27,29,31,33,35,37,39,41,43,45,47,49,51,53,55,57,59,61,63,65,67,-1,69,-1,71,73,75,-1,-1,-1,-1,77,-1,79,-1,81,83,85,87,89,91,93,95,-1,-1,-1,-1,-1,-1,-1,-1,-1,-1,-1,-1,-1,-1,-1,-1,-1,-1,-1,-1,-1,-1,-1,-1,-1,-1,-1,-1,-1,-1,-1,-1,-1,-1,-1,-1,-1,-1,-1,-1],"loss_changes":[6.7761534E-1,3.3249254E0,6.2524915E0,3.5985546E0,1.8385415E0,3.6159348E0,2.1026552E0,2.7120209E0,1.8585765E0,0E0,2.3230243E0,3.9044123E0,3.1223593E0,3.0776718E0,1.5329834E0,2.3586652E0,2.8162675E0,2.8295E0,3.6941972E0,1.5434973E0,1.9418243E0,7.087634E-1,1.2223177E0,2.373201E0,1.8585513E0,3.2287343E0,4.4525743E0,2.430266E0,7.2194066E0,1.4053771E0,5.134795E0,1.8065872E0,2.8678584E0,3.1854744E0,1.144176E0,0E0,1.1372372E0,0E0,1.0480113E0,2.9973602E0,1.2090178E0,0E0,0E0,0E0,0E0,2.1840425E0,0E0,3.5139441E-1,0E0,3.0287669E0,5.441447E0,4.070777E0,3.720159E0,4.068608E0,2.293184E0,9.272256E-1,4.306668E0,0E0,0E0,0E0,0E0,0E0,0E0,0E0,0E0,0E0,0E0,0E0,0E0,0E0,0E0,0E0,0E0,0E0,0E0,0E0,0E0,0E0,0E0,0E0,0E0,0E0,0E0,0E0,0E0,0E0,0E0,0E0,0E0,0E0,0E0,0E0,0E0,0E0,0E0,0E0,0E0],"parents":[2147483647,0,0,1,1,2,2,3,3,4,4,5,5,6,6,7,7,8,8,10,10,11,11,12,12,13,13,14,14,15,15,16,16,17,17,18,18,19,19,20,20,21,21,22,22,23,23,24,24,25,25,26,26,27,27,28,28,29,29,30,30,31,31,32,32,33,33,34,34,36,36,38,38,39,39,40,40,45,45,47,47,49,49,50,50,51,51,52,52,53,53,54,54,55,55,56,56],"right_children":[2,4,6,8,10,12,14,16,18,-1,20,22,24,26,28,30,32,34,36,38,40,42,44,46,48,50,52,54,56,58,60,62,64,66,68,-1,70,-1,72,74,76,-1,-1,-1,-1,78,-1,80,-1,82,84,86,88,90,92,94,96,-1,-1,-1,-1,-1,-1,-1,-1,-1,-1,-1,-1,-1,-1,-1,-1,-1,-1,-1,-1,-1,-1,-1,-1,-1,-1,-1,-1,-1,-1,-1,-1,-1,-1,-1,-1,-1,-1,-1,-1],"split_conditions":[8.68972E3,8.249934E3,9.306535E3,7.5E4,8.286746E3,2.5E0,7.5E4,2.215E2,3.5156707E3,-3.9726603E-1,1.425E2,8.75E1,8.921819E3,4.495E2,1.0556533E4,1.26E2,5.568174E3,3.172753E3,3.7811338E3,4.05E1,2.505E2,4.15E1,8.732291E3,8.837191E3,3.115E2,4.025E2,4.95E2,1.5E5,1.0886463E4,4.8E1,4.96899E3,3.3382422E3,7.559889E3,2.9530117E3,1.6E2,-3.7146375E-1,7.311332E3,3.2892242E-2,8.372307E3,7.5E4,8.547375E3,8.27781E-2,-1.430368E-1,2.8066391E-2,3.7355563E-1,8.784458E3,-3.873184E-1,9.100473E3,-1.08435884E-1,3.955E2,2.1414902E4,1.912141E4,5.395E2,5E-1,3.5E5,1.5E0,1.1216897E4,-4.0686868E-2,1.2956275E-1,-2.909187E-1,8.039409E-2,1.1121645E-1,3.7920883E-1,-1.5368687E-1,2.2986144E-1,1.033394E-2,-2.8133965E-1,3.513407E-1,4.3058418E-2,-6.3683264E-2,1.928752E-2,-5.122401E-3,-3.462599E-1,-1.5998381E-1,3.224757E-1,-2.135842E-1,7.958046E-2,-1.584821E-1,2.0802741E-1,3.3074495E-1,1.1096931E-1,-1.26952715E-2,-2.8688586E-1,-9.375546E-2,3.3448336E-1,1.1614084E-3,-4.84379E-1,1.6309461E-1,-1.0079686E-1,2.3583049E-1,-9.0328515E-2,-2.0986834E-1,-1.925175E-2,3.225156E-2,2.9716587E-1,-1.9736882E-1,8.426665E-3],"split_indices":[1,1,1,2,1,5,2,0,1,0,0,0,1,0,1,0,1,1,1,0,0,0,1,1,0,0,0,2,1,0,1,1,1,1,0,0,1,0,1,2,1,0,0,0,0,1,0,1,0,0,1,1,0,3,2,5,1,0,0,0,0,0,0,0,0,0,0,0,0,0,0,0,0,0,0,0,0,0,0,0,0,0,0,0,0,0,0,0,0,0,0,0,0,0,0,0,0],"split_type":[0,0,0,0,0,0,0,0,0,0,0,0,0,0,0,0,0,0,0,0,0,0,0,0,0,0,0,0,0,0,0,0,0,0,0,0,0,0,0,0,0,0,0,0,0,0,0,0,0,0,0,0,0,0,0,0,0,0,0,0,0,0,0,0,0,0,0,0,0,0,0,0,0,0,0,0,0,0,0,0,0,0,0,0,0,0,0,0,0,0,0,0,0,0,0,0,0],"sum_hessian":[1.6135555E3,2.0435928E2,1.4091963E3,1.8967918E2,1.4680112E1,2.4072887E1,1.3851234E3,4.6560005E1,1.4311917E2,1.395983E0,1.3284129E1,1.29605465E1,1.1112341E1,3.416779E2,1.0434454E3,3.0664867E1,1.5895137E1,6.099118E1,8.212799E1,6.272542E0,7.0115867E0,3.080941E0,9.879606E0,5.1306925E0,5.981649E0,3.0762946E2,3.4048428E1,3.439947E1,1.009046E3,1.8812426E1,1.1852441E1,1.0411755E1,5.483382E0,5.68554E1,4.13578E0,2.2545774E0,7.987341E1,1.5302445E0,4.7422976E0,3.2966287E0,3.714958E0,1.5959995E0,1.4849415E0,1.2072431E0,8.672362E0,3.9479249E0,1.1827674E0,4.7383585E0,1.2432905E0,2.983626E2,9.266851E0,5.935397E0,2.8113031E1,1.2214719E1,2.2184755E1,9.421555E0,9.9962445E2,5.7583656E0,1.305406E1,5.0126925E0,6.8397484E0,5.9767566E0,4.4349985E0,3.671779E0,1.8116033E0,5.4265873E1,2.5895283E0,1.888441E0,2.2473388E0,6.0815254E1,1.9058159E1,1.0148331E0,3.7274647E0,1.0498726E0,2.246756E0,2.3505826E0,1.3643752E0,2.3490787E0,1.5988462E0,1.7027745E0,3.035584E0,2.9568845E2,2.6741774E0,4.0834913E0,5.18336E0,2.3412824E0,3.5941148E0,5.0619426E0,2.3051088E1,4.980769E0,7.2339497E0,1.0156489E1,1.2028266E1,1.680569E0,7.740986E0,8.238133E0,9.9138635E2],"tree_param":{"num_deleted":"0","num_feature":"6","num_nodes":"97","size_leaf_vector":"0"}},{"base_weights":[1.3265946E-3,4.975425E-2,-9.159076E-3,7.589995E-2,-2.4045373E-1,-1.3137868E-1,9.620604E-4,6.4247504E-2,7.635893E-1,5.4633087E-1,-3.7211037E-1,-4.6440955E-2,-4.3962687E-1,4.443921E-1,-5.5956133E-3,7.310483E-2,-5.430003E-1,6.6501653E-1,1.4676529E-1,-7.133614E-1,-1.0767412E-1,-7.9472476E-1,-1.8007276E-3,-9.696122E-1,-8.04251E-2,6.657508E-1,-2.4402095E-2,-1.02545835E-1,4.666804E-3,4.5006737E-2,3.0211037E-1,-9.032743E-1,-5.6040257E-2,-1.104743E0,-2.9875267E-1,7.402216E-1,-2.803937E-1,-1.0624644E0,7.0573665E-2,1.003604E0,-3.1075912E-2,-8.416555E-2,-1.1256181E0,8.594785E-1,-2.7328008E-1,3.7682164E-1,1.23178E0,-5.579798E-1,3.5232344E-1,-2.7567062E-1,6.2821485E-2,3.447144E-1,-2.3834738E-3,6.1188E-2,-6.309392E-1,4.7221735E-2,8.8669425E-1,-8.1105995E-1,1.15740106E-1,-9.7426856E-1,-6.805433E-2,-1.15450606E-1,3.460307E-1,-3.9730194E-1,-1.3629892E0,-5.522483E-1,4.591322E-1,-2.1145903E-1,7.2140706E-1,-7.3462254E-1,-1.054562E-1,4.8493832E-1,-3.822893E-2,-4.5514783E-1,2.5985688E-1,1.1590291E0,1.3419364E-2,6.83843E-1,-2.1783404E-1,-4.327801E-1,4.538425E-3],"categories":[],"categories_nodes":[],"categories_segments":[],"categories_sizes":[],"default_left":[1,1,1,1,1,1,1,1,0,1,1,1,1,1,1,1,1,0,0,1,1,1,1,1,1,1,1,1,1,1,1,0,0,0,1,0,1,0,0,0,1,0,1,0,1,1,0,1,1,1,1,1,1,0,0,0,0,0,0,0,0,0,0,0,0,0,0,0,0,0,0,0,0,0,0,0,0,0,0,0,0],"id":20,"left_children":[1,3,5,7,9,11,13,15,-1,17,19,21,23,25,27,29,31,-1,-1,33,35,37,39,41,43,45,47,49,51,53,55,-1,-1,-1,57,-1,59,-1,-1,-1,61,-1,63,-1,65,67,-1,69,71,73,75,77,79,-1,-1,-1,-1,-1,-1,-1,-1,-1,-1,-1,-1,-1,-1,-1,-1,-1,-1,-1,-1,-1,-1,-1,-1,-1,-1,-1,-1],"loss_changes":[8.190125E-1,2.1963954E0,1.6402851E0,2.0672293E0,2.6857023E0,2.6347008E0,3.5660946E0,1.4423765E0,0E0,8.452368E-2,1.8294342E0,2.6916113E0,4.0700283E0,1.8708243E0,1.2030003E0,1.6460309E0,6.2795246E-1,0E0,0E0,1.1376715E0,2.1230192E0,1.1259911E0,2.300058E0,1.108635E0,2.786624E0,1.5269551E0,1.5427278E0,3.3306918E0,2.6233675E0,2.5642128E0,4.1320896E0,0E0,0E0,0E0,1.3175855E0,0E0,1.6415226E0,0E0,0E0,0E0,2.4541209E0,0E0,7.2497463E-1,0E0,2.7951815E0,2.0785675E0,0E0,1.7500293E-1,2.5359172E-1,5.570538E0,3.2341602E0,4.3892E0,3.1976295E0,0E0,0E0,0E0,0E0,0E0,0E0,0E0,0E0,0E0,0E0,0E0,0E0,0E0,0E0,0E0,0E0,0E0,0E0,0E0,0E0,0E0,0E0,0E0,0E0,0E0,0E0,0E0,0E0],"parents":[2147483647,0,0,1,1,2,2,3,3,4,4,5,5,6,6,7,7,9,9,10,10,11,11,12,12,13,13,14,14,15,15,16,16,19,19,20,20,21,21,22,22,23,23,24,24,25,25,26,26,27,27,28,28,29,29,30,30,34,34,36,36,40,40,42,42,44,44,45,45,47,47,48,48,49,49,50,50,51,51,52,52],"right_children":[2,4,6,8,10,12,14,16,-1,18,20,22,24,26,28,30,32,-1,-1,34,36,38,40,42,44,46,48,50,52,54,56,-1,-1,-1,58,-1,60,-1,-1,-1,62,-1,64,-1,66,68,-1,70,72,74,76,78,80,-1,-1,-1,-1,-1,-1,-1,-1,-1,-1,-1,-1,-1,-1,-1,-1,-1,-1,-1,-1,-1,-1,-1,-1,-1,-1,-1,-1],"split_conditions":[5.65E1,3.4338586E4,7.15E1,3.3325164E4,1.65E1,2.7921559E4,7.45E1,3.2897785E4,2.290768E-1,3.5E5,3.6732742E4,3.153268E3,3.0734152E4,2.4922707E4,9.35E1,2.8972295E4,3.95E1,1.9950497E-1,4.402959E-2,5E-1,3.7086285E4,6.6E1,3.8818655E3,5.85E1,3.1736854E4,2.1779871E4,2.8209918E4,1.958757E4,9.75E1,2.839823E4,3.5E5,-2.709823E-1,-1.6812079E-2,-3.3142292E-1,7.5E4,2.2206649E-1,3.813833E4,-3.1873932E-1,2.11721E-2,3.0108124E-1,2.4429008E4,-2.5249666E-2,2.8951307E4,2.5784355E-1,3.9466484E4,5E-1,3.6953402E-1,2.5865809E4,1.5E0,3.5E0,1.9863719E4,2.5E0,1.005E2,1.8356401E-2,-1.8928176E-1,1.4166521E-2,2.660083E-1,-2.4331799E-1,3.4722034E-2,-2.9228058E-1,-2.04163E-2,-3.4635182E-2,1.03809215E-1,-1.1919059E-1,-4.0889677E-1,-1.656745E-1,1.3773966E-1,-6.343771E-2,2.1642213E-1,-2.2038677E-1,-3.1636864E-2,1.454815E-1,-1.1468679E-2,-1.3654436E-1,7.7957064E-2,3.4770876E-1,4.0258095E-3,2.0515291E-1,-6.535021E-2,-1.2983403E-1,1.3615275E-3],"split_indices":[0,1,0,1,0,1,0,1,0,2,1,1,1,1,0,1,0,0,0,3,1,0,1,0,1,1,1,1,0,1,2,0,0,0,2,0,1,0,0,0,1,0,1,0,1,3,0,1,3,5,1,5,0,0,0,0,0,0,0,0,0,0,0,0,0,0,0,0,0,0,0,0,0,0,0,0,0,0,0,0,0],"split_type":[0,0,0,0,0,0,0,0,0,0,0,0,0,0,0,0,0,0,0,0,0,0,0,0,0,0,0,0,0,0,0,0,0,0,0,0,0,0,0,0,0,0,0,0,0,0,0,0,0,0,0,0,0,0,0,0,0,0,0,0,0,0,0,0,0,0,0,0,0,0,0,0,0,0,0,0,0,0,0,0,0],"sum_hessian":[1.6109781E3,2.860629E2,1.3249152E3,2.6309808E2,2.2964827E1,1.0041042E2,1.2245048E3,2.5978955E2,3.3085399E0,2.8404622E0,2.0124365E1,7.962142E1,2.0789005E1,1.6871723E1,1.207633E3,2.569217E2,2.8678513E0,1.6777577E0,1.1627043E0,8.0448885E0,1.2079476E1,3.536573E0,7.608485E1,7.71158E0,1.3077425E1,1.1174928E1,5.6967945E0,1.14734146E2,1.0928989E3,2.2990926E2,2.7012444E1,1.1569586E0,1.7108927E0,3.282107E0,4.7627816E0,1.4881808E0,1.0591296E1,2.5268571E0,1.0097158E0,1.2110692E0,7.487378E1,1.3857791E0,6.3258004E0,1.6379688E0,1.1439456E1,8.501217E0,2.6737115E0,2.1584826E0,3.538312E0,5.5726482E1,5.900766E1,2.1226221E1,1.0716726E3,2.2542241E2,4.4868407E0,1.956329E1,7.449153E0,1.70217E0,3.0606112E0,1.6409142E0,8.950381E0,6.1751263E1,1.3122517E1,2.2121398E0,4.113661E0,8.462257E0,2.9771986E0,3.2829168E0,5.2183E0,1.1041044E0,1.0543782E0,2.4609914E0,1.0773206E0,4.1850693E1,1.387579E1,1.5759963E0,5.7431664E1,1.3108334E1,8.1178875E0,1.5988692E1,1.055684E3],"tree_param":{"num_deleted":"0","num_feature":"6","num_nodes":"81","size_leaf_vector":"0"}},{"base_weights":[1.1166771E-3,1.0573148E-2,-4.5074876E-2,7.190415E-3,1.3670512E0,-1.1861497E0,-3.08814E-2,-1.1626457E-2,7.365062E-2,1.5964456E-2,-1.598E-1,-2.5789412E-2,8.035901E-2,1.5192376E-1,-1.7754807E-1,-2.1433486E-1,8.5364476E-2,1.2453367E-2,-3.2797644E-1,-1.030641E-2,-2.7334216E-1,7.769768E-1,4.8809297E-2,7.237774E-2,4.2548618E-1,-6.499354E-1,-2.8529674E-2,-4.0771902E-1,4.8162535E-1,-9.216588E-2,1.5886904E-1,3.5318264E-1,-2.2484651E-1,-4.036735E-1,5.809592E-1,-1.6161753E-2,8.0479693E-1,-6.626791E-1,2.9501917E-2,1.1331488E0,2.1126756E-1,-6.656301E-1,7.279409E-2,1.1379529E-1,-6.2963563E-1,6.646921E-1,3.026425E-2,4.2091015E-1,-8.4690994E-1,-5.6291366E-1,1.6665387E-1,-6.165417E-1,2.643605E-2,8.139854E-1,-2.8483212E-1,1.870334E-1,-2.6489902E-1,1.24395065E-1,8.890572E-1,6.082212E-1,-1.5266378E-1,-1.0005015E0,-7.1530506E-2,-6.161631E-1,-2.441388E-1],"categories":[],"categories_nodes":[],"categories_segments":[],"categories_sizes":[],"default_left":[1,1,1,1,0,0,1,1,1,1,1,1,1,1,1,1,1,1,1,1,1,1,1,1,1,1,1,1,1,1,1,1,1,1,0,0,0,0,0,0,0,0,0,0,0,0,0,0,0,0,0,0,0,0,0,0,0,0,0,0,0,0,0,0,0],"id":21,"left_children":[1,3,5,7,-1,-1,9,11,13,15,17,19,21,23,25,27,29,31,33,35,37,39,41,43,45,47,49,51,53,55,57,59,61,63,-1,-1,-1,-1,-1,-1,-1,-1,-1,-1,-1,-1,-1,-1,-1,-1,-1,-1,-1,-1,-1,-1,-1,-1,-1,-1,-1,-1,-1,-1,-1],"loss_changes":[7.0249975E-1,6.115319E0,4.3897023E0,1.6673032E0,0E0,0E0,1.6390204E0,1.3561568E0,5.8109818E0,3.209394E0,2.0988722E0,3.452327E0,3.0153325E0,4.8615255E0,4.9335356E0,6.4572325E0,2.0260558E0,3.0456715E0,2.7544763E0,4.067093E0,6.271385E0,9.598994E-1,2.3441303E0,5.17097E0,4.7486076E0,3.9051561E0,5.78078E0,3.3657918E0,2.9254112E0,2.2566953E0,2.6426158E0,2.0860448E0,2.572782E0,1.0156994E0,0E0,0E0,0E0,0E0,0E0,0E0,0E0,0E0,0E0,0E0,0E0,0E0,0E0,0E0,0E0,0E0,0E0,0E0,0E0,0E0,0E0,0E0,0E0,0E0,0E0,0E0,0E0,0E0,0E0,0E0,0E0],"parents":[2147483647,0,0,1,1,2,2,3,3,6,6,7,7,8,8,9,9,10,10,11,11,12,12,13,13,14,14,15,15,16,16,17,17,18,18,19,19,20,20,21,21,22,22,23,23,24,24,25,25,26,26,27,27,28,28,29,29,30,30,31,31,32,32,33,33],"right_children":[2,4,6,8,-1,-1,10,12,14,16,18,20,22,24,26,28,30,32,34,36,38,40,42,44,46,48,50,52,54,56,58,60,62,64,-1,-1,-1,-1,-1,-1,-1,-1,-1,-1,-1,-1,-1,-1,-1,-1,-1,-1,-1,-1,-1,-1,-1,-1,-1,-1,-1,-1,-1,-1,-1],"split_conditions":[2.9395277E4,2.9373867E4,2.9455652E4,1.5E0,4.101154E-1,-3.5584491E-1,3.5E0,4.125E2,3.035E2,7.5E4,1.5E5,3.525E2,4.185E2,2.3457496E4,7.5E4,2.57E2,3.1686516E4,1.235E2,5E-1,3.485E2,1.6885133E4,1.5461533E4,4.215E2,2.238164E4,2.7019266E4,1.2739924E4,1.5E0,2.5E0,5.49E2,1.5E0,6.51E2,1.5E0,1.365E2,1.27E2,1.7428777E-1,-4.848526E-3,2.4143909E-1,-1.9880374E-1,8.850575E-3,3.3994466E-1,6.338027E-2,-1.9968905E-1,2.1838227E-2,3.4138586E-2,-1.888907E-1,1.9940764E-1,9.079275E-3,1.2627305E-1,-2.54073E-1,-1.688741E-1,4.9996164E-2,-1.8496251E-1,7.930815E-3,2.4419563E-1,-8.5449636E-2,5.611002E-2,-7.946971E-2,3.731852E-2,2.6671717E-1,1.8246636E-1,-4.5799136E-2,-3.0015045E-1,-2.1459153E-2,-1.8484893E-1,-7.324164E-2],"split_indices":[1,1,1,3,0,0,5,0,0,2,2,0,0,1,2,0,1,0,4,0,1,1,0,1,1,1,5,5,0,5,0,3,0,0,0,0,0,0,0,0,0,0,0,0,0,0,0,0,0,0,0,0,0,0,0,0,0,0,0,0,0,0,0,0,0],"split_type":[0,0,0,0,0,0,0,0,0,0,0,0,0,0,0,0,0,0,0,0,0,0,0,0,0,0,0,0,0,0,0,0,0,0,0,0,0,0,0,0,0,0,0,0,0,0,0,0,0,0,0,0,0,0,0,0,0,0,0,0,0,0,0,0,0],"sum_hessian":[1.6061626E3,1.3338616E3,2.7230096E2,1.3315464E3,2.3152575E0,2.331009E0,2.6996997E2,1.0383761E3,2.9317026E2,1.9865851E2,7.131146E1,9.0045337E2,1.379227E2,2.2382266E2,6.93476E1,4.5518852E1,1.5313965E2,3.5686157E1,3.5625305E1,8.484306E2,5.2022816E1,4.95215E0,1.3297055E2,1.7438101E2,4.9441643E1,1.5824043E1,5.352356E1,3.5945076E1,9.573775E0,4.4765892E1,1.0837376E2,1.4449857E1,2.1236301E1,3.3399635E1,2.2256708E0,8.433525E2,5.0781E0,2.2241247E1,2.978157E1,2.4233465E0,2.528803E0,3.4500837E0,1.2952046E2,1.6545723E2,8.923781E0,3.0375322E1,1.906632E1,2.2818677E0,1.3542175E1,1.3815291E1,3.9708267E1,2.398738E1,1.1957697E1,6.6347356E0,2.93904E0,1.7078333E1,2.768756E1,1.0460544E2,3.7683203E0,9.4719095E0,4.977947E0,2.5928466E0,1.8643456E1,1.3095305E1,2.0304329E1],"tree_param":{"num_deleted":"0","num_feature":"6","num_nodes":"65","size_leaf_vector":"0"}},{"base_weights":[1.1133492E-3,-2.981675E-3,8.515306E-2,-3.7074748E-3,4.9429092E-1,4.8794064E-1,5.3328652E-2,-2.6649032E-3,-7.754884E-1,1.9024713E-1,6.775171E-1,2.6732469E-2,4.4048882E-1,-3.7886112E-3,3.9604977E-1,2.4347368E-1,3.1434566E-2,8.901845E-2,-2.4218209E-1,9.00807E-2,6.6635036E-1,-2.306388E-3,-6.2722915E-1,9.1326344E-1,-8.08077E-2,3.9724592E-2,8.6787957E-1,-5.686157E-1,8.829461E-2,-4.3418836E-3,2.8604823E-1,-1.1340133E0,4.6842866E-2,